95 100
the 0.04067907 -0.026813854 0.0050097927 -0.012122501 0.03911939 0.032323565 -0.005742859 -0.0079039335 0.016902473 -0.049191307 0.03307903 -0.009075142 0.034676623 -0.01335182 -0.026747787 0.008130826 -0.035149086 -0.0007370487 0.023264084 0.034452107 -0.012872435 0.048251305 -0.03131652 -0.045380652 -0.032362126 0.020046446 0.04356912 0.03406476 -0.025484418 -0.025151098 -0.039337136 -0.047487736 -0.01152705 0.020024065 0.041768376 0.029912245 0.038807813 -0.0075435042 -0.02186209 0.0006575957 -0.046100616 -0.0020644777 0.013610471 0.047641102 -0.03635918 0.048220422 0.045208905 0.013294291 0.015058313 -0.016853571 0.03368238 -0.047518767 -0.049053848 0.04096153 0.019653883 0.0299966 -0.010568928 0.021737132 -0.0114231 0.040013384 0.049245838 -0.024600565 0.0102767125 -0.035850666 -0.008660566 -0.004068315 -0.0046930425 -0.027239216 -0.0029473417 0.042554382 0.014452543 -0.049123276 0.044034828 0.026120674 0.02459487 0.01033299 0.013283316 -0.038072966 -0.047400653 0.017383348 0.02331182 -0.0128878355 -0.010600746 0.041871164 0.033913348 0.019558858 0.020122197 -0.026480759 0.010666084 -0.049704123 0.044650424 -0.011555292 -0.0066474676 -0.044427752 0.0041616075 -0.03131329 -0.02774253 -0.043442667 -0.033357754 0.021678317
of -0.002859056 -0.031195927 -0.024777591 0.04029945 -0.048333466 -0.030665899 -0.0495402 -0.04003892 -0.015296735 0.049174253 -0.001098536 0.0029331222 0.040775668 -0.019414866 0.03644747 0.021044899 -0.0032699928 -0.0133525245 0.015376713 0.026228044 0.029738713 -0.009739436 -0.013742648 0.013320867 -0.02077874 -0.027167333 -0.019768203 0.04027814 -0.017602362 0.027010906 3.951788e-05 0.0069684274 -0.012893163 -0.045489073 -0.03318216 0.040027585 0.0018208846 0.036281195 0.009174347 0.049426306 0.02259611 -0.049516607 0.02395982 0.046328317 0.027297128 -0.024958659 0.0457181 0.00076089054 0.039863173 0.03502543 0.008179188 -0.010887682 -0.03950838 0.04596554 0.022176776 0.010996401 -0.021788431 -0.02019756 0.046599578 -0.000629507 -0.03078704 0.008592892 0.009844102 0.023144964 0.005461909 -0.01863569 -0.0054211244 0.038627077 0.023512986 0.033994522 0.039230634 0.009869982 0.021844517 -0.0005135536 0.0042890906 -0.016525388 0.039500963 0.042061236 -0.0026672706 -0.033027068 0.04005294 0.011259936 -0.0074750893 0.037562374 0.0040583014 0.01799662 0.016553406 0.046424497 0.03731786 0.0042959563 0.002726268 0.034578983 -0.032357205 0.008311629 0.018974554 0.0377697 0.028626148 -0.020934869 -0.036985874 0.029562857
influenza 0.004619587 0.045854222 -0.02105769 0.025327493 -0.0011837967 0.0026089065 -0.035067856 -0.036789466 -0.02521658 -0.032037996 -0.0017014742 -0.01346948 -0.04286152 0.013645899 0.04932246 0.045617666 0.038245473 0.037014794 -0.027586985 -0.0014329776 -0.034512736 0.04908848 0.012668479 -0.049051512 0.0427163 0.0030584224 -0.010430731 0.011606514 -0.013043664 -0.02564547 -0.027938414 -0.017647576 0.04970402 0.029514108 0.009417392 -0.031598188 -0.047913432 -0.031403817 0.021581363 0.027877342 -0.014347114 0.045644987 -0.007456444 0.009506881 0.042559687 0.0128293075 -0.030187715 0.0049333945 0.033826437 -0.040462505 -0.0431569 -0.0150965825 0.04945037 0.013105694 0.022982743 0.019939277 -0.039212823 0.009390868 -0.048997056 0.004188299 0.040904094 -0.001772143 0.039969657 -0.013067089 -0.034649074 0.039108466 -0.032694258 -0.0375355 -0.0030310154 0.028950106 0.025672805 0.046576228 -0.037824273 -0.037107777 -0.010181297 0.024717476 0.0018086806 -0.035858463 -0.023329878 -0.028564978 0.015183259 -0.026739836 -0.04299785 0.009166501 -0.013670336 -0.026134444 -0.010107435 -0.023187434 0.048038427 0.025641236 0.040674154 -0.033291377 -0.03379848 -0.028321493 -0.023183525 -0.036351718 0.026508514 0.04470109 -0.025418593 0.008766867
covid -0.017807685 0.025174107 0.038399387 -0.002677001 -0.029760111 0.016533684 -0.01575651 -0.02057302 0.026915263 0.030205581 0.010504864 0.02350444 -0.0017245039 -0.04601277 -0.039684273 0.0005444996 -0.02860533 -0.025121247 -0.023475755 -0.019370377 -0.046341266 -0.026844038 0.023856822 0.025668528 0.046005163 0.013665143 -0.04057622 0.0075844415 -0.03198248 -0.043692328 0.0043678507 -0.008884706 -0.015127957 -0.021589447 -0.030094374 -0.03835269 0.016863529 0.03817903 0.013357114 0.042115096 -0.012487639 -0.03340832 -0.033344425 0.0379054 0.02749462 0.009860586 0.023737583 -0.018437266 -0.043005656 0.0008528605 -0.026781881 -0.013839792 0.006288491 0.021634426 -0.028848577 -0.024107372 -0.016735721 0.015706245 -0.00034571812 0.005537294 -0.048652697 -0.03534939 0.0054392703 -0.0030782707 0.029166188 0.03551134 0.009439636 0.018536855 0.047070716 -0.046852767 -0.006691955 0.031081546 0.022280965 -0.010864414 -0.022947371 -0.015832853 0.013214599 -0.023616685 0.027924072 -0.029632462 -0.0001934655 -0.0062844977 0.007007826 -0.0072819106 -0.019018173 -0.032132342 -0.041951656 0.01630168 0.011258651 0.027581517 -0.012481868 0.039387215 0.017607007 -0.048279475 0.003420364 0.023831394 -0.04308268 -0.039619625 -0.041663636 -0.04929942
19 0.041190755 -0.047199942 0.046224523 0.02231295 -0.026978076 -0.02252679 -0.024258567 0.045907605 -0.011607457 0.04594255 -0.025997674 -0.01654451 -0.037566017 -0.036691047 0.016167235 0.002748765 -0.03234881 -0.016787648 -0.005620312 0.030498002 0.049816404 0.0035196058 -0.015425108 0.008173514 0.04007666 0.02188928 -0.012799669 -0.009002782 0.0118749365 0.020510439 0.012127779 0.04893266 0.021543864 0.04561137 -0.02151581 0.0027574897 0.043877903 0.02815235 0.001872588 0.01447681 -0.027949786 -0.028900897 0.039116416 0.04157651 0.023131754 -0.011064839 0.03192203 0.018470969 -0.006239392 -0.0006028414 -0.0035435185 -0.022134745 -0.013448276 0.012706254 0.01711699 -0.019108415 0.039101508 0.039605405 0.015466321 0.03248005 -0.004304994 0.030362036 -0.0323949 -0.041086625 -0.009536397 0.0020919926 -0.01321131 -0.041453898 -0.036512803 -0.024973094 -0.037009 0.030925278 0.033578906 0.01972213 0.00657209 -0.027208472 0.024316404 -4.696846e-05 0.008417297 -0.025781525 -0.014332484 0.040425923 0.046039436 -0.046567883 -0.0009546988 0.009192206 0.049751554 0.005629707 -0.03976797 0.023491334 0.0023473278 0.013272036 0.0118232 6.652996e-05 -0.0056783445 -0.037440814 -0.011523534 -0.0035192743 0.0015690103 0.001027964
virus 0.0023615956 0.034041908 -0.027794098 0.0019106381 -0.044661414 -0.016423095 0.019747127 0.014029551 -0.03645637 0.046063315 -0.01600995 0.049720835 0.015956473 -0.0023606531 -0.0440254 0.016051304 0.0028898008 -0.025737787 -0.0017833337 -0.01798097 0.011142455 -0.049991347 -0.024822855 -0.036989402 -0.04480777 -0.03045696 -0.014407277 -0.01812334 0.015589941 0.004866816 -0.018569242 -0.0133652575 0.046787832 -0.01936158 -0.04373703 -0.030528665 0.012334488 0.002095364 0.006871246 -0.0067593567 0.026294712 -0.045247566 0.040554393 0.049219165 -0.026752222 0.0077260137 0.0077082515 0.046601426 -0.028523147 0.031728078 0.0025253408 -0.0010033958 -0.010752678 -0.021694386 0.008945383 -0.022436976 0.013655771 0.04315951 0.022400592 0.0077813864 0.0043274052 -0.008691706 -0.044201255 -0.04821677 -0.032869235 0.049110305 -0.041089676 -0.0074805394 0.02984177 0.0071657673 0.010449279 -0.04082657 0.0032471195 0.017531004 -0.047096897 0.0415274 0.01289108 -0.012476098 -0.03878995 -0.017269064 -0.029142965 -0.018123638 0.047217693 0.040283863 -0.00068406016 -0.027396096 -0.00016539171 0.011416327 -0.048934937 0.023299646 0.029423092 -0.013610028 0.011821341 0.029448692 0.008760523 0.042844657 -0.01805117 -0.040348697 0.007076584 0.026158694
for -0.018132664 -0.026260436 0.010102559 0.035430793 0.0016107932 0.019511972 -0.038205672 -0.03755232 -0.006943226 -0.036619462 -0.01858753 -0.037776005 -0.02211604 0.008313905 -0.04762081 -0.00061734766 0.038787533 -0.023366189 0.04075351 0.004124474 0.034227643 0.029623363 -0.009827755 -0.015349556 0.0427928 0.012136936 -0.025792658 -0.01869892 0.041245017 0.04422244 0.0030004755 0.042094503 -0.010814656 0.042837527 0.03459784 0.025757823 0.03469101 0.029859688 0.031695593 0.026954804 0.024767842 -0.0035690777 0.0053499117 0.04890803 0.043198157 0.0155660845 0.031096246 0.030893449 -0.029133726 0.040394414 0.043718312 0.027176071 0.009482991 -0.04836439 -0.046324577 -0.031070603 0.047538433 0.005803965 -0.025096273 -0.04863305 0.002711106 -0.039486445 -0.031398952 0.003594946 0.039356682 0.049051557 -0.04329909 0.021523546 -0.008832954 0.04645573 0.005309891 0.042871963 -0.01860211 0.04420526 0.03799386 -0.042019952 0.048864733 0.03022695 -0.0026282445 0.034425247 0.024847995 0.01284105 -0.0018649213 -0.0005194433 0.038220298 -0.030444909 -0.040973533 0.0056752786 0.0019142404 -0.04821199 0.048144605 0.04638085 0.030025009 0.021511745 -0.03148611 -0.0005745776 0.037016574 0.024222385 0.04028109 -0.046297718
transmission -0.03576709 0.0011084676 0.013659287 0.023762587 0.03638203 -0.031724647 -0.0068669803 0.0016052127 0.017665517 -0.04462565 -0.033123054 0.0024742112 0.019796196 -0.015555181 -0.020317031 -0.0059706084 0.048159327 0.017136443 0.031562362 0.018240217 0.015054908 -0.010154307 -0.0008707419 0.0080364235 0.040602755 -0.029101754 -0.04334706 0.020117987 0.042184208 -0.016614903 -0.010520063 0.035931554 -0.006118905 0.011640646 0.032239664 0.043550584 0.020631205 -0.01624737 0.025973607 -0.029951347 -0.01077541 0.008981407 -0.014643274 -0.037370574 -0.03412913 0.007089101 -0.0022649877 0.012775134 0.03358854 0.038235333 -0.025691986 0.024066042 0.0013065562 -0.009292591 0.0019938722 -0.047260452 0.022448722 0.043912005 0.028648246 0.039830934 0.030365396 -0.012690283 -0.03620676 0.016273785 -0.0010464564 -0.03441335 -0.03148799 -0.04370705 0.03510518 0.041438308 0.020625379 -0.025960911 0.0255141 -0.04459591 0.004668046 -0.024730695 -0.017185021 -0.032310978 0.015318561 -0.03615129 -0.033734575 -0.0015640967 0.037282515 -0.02805072 -0.043600928 -0.03782661 0.027598072 -0.049953736 0.021249685 -0.003146194 0.0069780126 0.03703353 0.010139026 0.002989471 0.033577207 0.0123263225 -0.029120088 0.0041468963 0.00012751669 -0.03145428
is -0.012924183 0.029973019 0.040764544 0.039310623 0.0070206895 -0.049798906 0.04539934 0.004459001 0.009190012 0.011328675 -0.044530094 -0.03763007 0.049092617 0.032644782 0.012299228 0.034482393 0.032754134 -0.0472121 0.046119403 -0.028615046 -0.033797026 0.022876713 -0.03879883 0.010466076 -0.0064839013 -0.034710728 -0.048333324 -0.0418746 -0.038372494 0.005343415 -0.043289077 0.03194442 0.031128649 -0.019133378 0.035229865 0.032451656 0.015458826 0.030431632 -0.011344612 0.041248325 -0.00991112 -0.010482859 -0.03282006 -0.026570642 0.003625214 0.029490326 0.030306224 0.03027973 -0.033575643 0.021815363 0.022833835 0.025912572 0.021693554 -0.027571023 -1.5877187e-05 -0.035545945 -0.037270866 -0.02444365 0.0488176 0.034048583 -0.030520165 0.045090403 -0.021073878 -0.025007427 0.018950593 -0.02751602 0.0052924976 0.04037043 0.02830397 -0.039756488 0.023657013 -0.035575043 -0.019628048 -0.005177103 -0.017864503 0.004183423 0.007922005 0.04837698 0.02699012 0.00992135 0.02516066 -0.018657219 -0.035336185 -0.026485074 0.0027070418 0.018638525 0.01595335 -0.046382226 0.04979411 0.00278138 0.0031769276 -0.020541335 -0.02657857 0.034986686 -0.022981394 0.04372361 -0.006559454 -0.04450841 -0.03826233 -0.0028758273
to -0.035956193 -0.049923804 -0.017612267 -0.004910432 0.017010402 -0.04660758 0.03417922 0.029517565 -0.0062240846 0.016572546 0.04337964 0.023376528 0.033915963 -0.03573562 0.038684014 -0.03797071 -0.014607586 -0.025255715 -0.036634743 -0.04148823 0.013845887 0.016797174 -0.039919805 0.014266219 0.03433803 0.011149596 0.041926634 0.031787742 -0.048280932 -0.033692587 -0.0012067184 0.033567537 -0.013028599 0.020215485 -0.04415505 -0.017055165 0.018157158 -0.042055953 0.017396975 -0.030704832 -0.018962491 0.04565208 -0.032383762 0.004464768 0.038505424 -0.014729392 0.030076016 0.011499859 0.00030682236 0.041118924 -0.04821179 -0.023530973 0.048699725 0.012243222 -0.02994281 -0.0012097135 -0.035039626 0.023013476 -0.0224077 0.021993566 -0.015996706 -0.022113597 0.012913767 0.045364086 0.04569446 -0.002090849 0.020571027 -0.020432686 -0.017531682 0.047152307 0.035255816 0.048635338 -0.0186368 -0.035468914 -0.039733373 0.005669344 -0.021615982 0.0054610483 0.023026142 0.04000259 -0.027660036 0.03739688 0.028181855 0.039007906 -0.029408932 0.002952505 0.04937518 0.028846774 -0.038950227 0.027213778 0.004699923 0.025767375 -0.036972284 -0.001545094 0.037407782 -0.039773844 0.04165267 -0.008608054 -0.024854112 -0.04122386
a 0.018964577 -0.02757293 -0.0022191033 0.049590442 -0.04857668 0.0070821643 0.00877329 0.024902236 -0.013670467 0.031862546 0.034432385 0.04360615 0.026270334 -0.0034068003 0.040527944 -0.015330959 -0.02343272 0.0048458576 -0.009069849 -0.026565123 0.007856883 -0.02668426 0.0017958395 0.04114202 0.0052721985 -0.019391013 0.018960025 0.025987435 -0.0323328 -0.049533345 0.009545565 0.048960056 0.018870149 0.042856563 0.024993125 -0.00797347 0.007081557 0.038044523 0.032524373 0.034898747 -0.04162661 0.002954863 -0.027779544 0.031596307 -0.032466076 -0.0014422052 0.020850014 -0.0404227 0.035846245 0.0020083673 -0.035861254 -0.00229026 -0.01592654 0.029113088 0.026883397 0.036061797 0.019039337 -0.041428138 0.0068736896 0.0065255165 -0.0037738457 0.020103123 -0.048871864 0.026359271 0.04826809 -0.04019022 0.037322212 0.008272242 0.004938435 0.00728482 -0.041270755 0.018061843 0.012431502 0.047349144 -0.018421493 -0.039515376 -0.005734004 -0.037329722 -0.022294058 -0.0014953725 -0.03484701 0.048135486 0.025033664 -0.006408848 -0.022468006 -0.009225607 -0.046448734 -0.03178128 0.011837412 0.036779527 -0.044494845 -0.0130912885 -0.0060533993 -0.032229617 -0.037202336 -0.014512826 0.013974395 -0.040115558 -0.01285411 0.022310529
and 0.003247857 -0.017212462 0.033581328 0.04498675 0.029023375 -0.020291103 -0.021652175 0.0045154467 -0.025354028 -0.00590235 0.033773962 -0.0468735 0.036890913 0.045969356 0.0011065714 -0.035440527 0.016544651 -0.019817604 0.0038053505 0.025883164 0.010727204 0.01942474 -0.003073167 -0.01988927 0.0024457946 -0.03758063 -0.046617176 -0.03295034 0.006627381 -0.020216191 -0.031130338 -0.046174515 -0.03972546 -0.037499845 -0.0015228614 -0.029533101 0.047330644 0.027641382 -0.020254219 0.007907808 0.008151781 0.022039901 0.04887605 0.012503449 -0.030725157 -0.04974531 -0.015686262 0.028205287 -0.022305941 0.019165073 0.043486025 0.033646572 0.04249985 0.0158335 -0.022811055 -0.039234817 -0.024924828 -0.049663424 0.013617706 0.029794265 0.032499444 0.010787822 -0.0022178777 0.019029047 -0.017440677 -0.042257585 -0.040827192 0.031754125 0.029642764 -0.0012989864 -0.026464952 0.01822633 -0.03141723 0.0077906847 0.04062352 0.048322883 -0.03937141 -0.02748102 -0.039719284 0.026276793 -0.03298857 0.0019370914 -0.016275894 0.0014444366 0.03350265 -0.011556637 0.008435022 -0.012260042 0.0020087957 0.049316693 -0.01494354 -0.03562056 -0.03552259 0.038054775 0.018407587 0.0027307048 0.038173173 -0.009616829 -0.032433677 -0.04241463
between 0.037929665 -0.007026054 -0.033988297 -0.030567897 -0.031342685 -0.028354442 -0.02311994 0.04146414 -0.023378313 -0.016662061 0.023846652 0.029650245 0.01941711 -0.02080897 -0.030940747 0.03442589 -0.0030821562 0.042117205 0.0111187585 0.014218453 0.042407956 -0.011681534 -0.023407077 0.012908723 -0.008497037 0.035133693 0.043451045 -0.002981864 -0.021595692 -0.01806891 0.048305634 -0.04462049 0.013128582 0.028116707 -0.022435725 0.009391822 -0.023563445 -0.009041287 0.018782247 0.01956426 -0.019323338 -0.038635027 -0.013375185 0.016339231 -0.018213559 0.016496602 -0.045959115 -0.045889925 0.033425022 -0.0033972263 0.00633974 0.01577032 -0.010962404 0.014057044 0.028486695 -0.034305654 -0.01027875 0.04448584 -0.043364167 0.039405156 0.012457453 0.00041170046 0.034098674 0.003738977 0.034305546 -0.011981737 -0.0013686307 0.025601055 0.00789243 -0.0362344 0.0073750243 -0.010887194 0.009986401 0.0083532445 0.03046992 0.0035637133 0.04217154 0.008115947 0.01742215 0.0012918599 -0.04262283 -0.017802574 0.03451586 -0.040334225 0.029347908 0.027974036 -0.016981065 -0.006333422 -7.53887e-05 -0.047753014 0.031237725 0.035859052 -0.032158375 0.041701917 0.013815824 0.03697547 0.012265932 0.017255079 0.015050974 -0.03308052
time -0.021007955 0.04977758 0.037107814 0.020587984 0.03546219 -0.027086843 -0.016026162 0.03103188 -0.025287105 0.026670862 0.032511625 0.015801225 0.041168246 0.03826816 -0.017770361 -0.015636362 -0.024432624 0.04961163 -0.008836437 -0.03593533 0.0068836324 -0.0018702149 0.0005213991 -0.048794996 -0.02654326 -0.018751288 -0.023611188 0.0078088418 0.03026415 -0.01189531 -0.016047418 0.04570205 -0.04862758 0.037676837 0.046176244 -0.014471389 0.022335324 -0.031423107 0.005745899 -0.004988957 0.028683845 -0.013748299 -0.02087611 0.04745387 0.014308047 -0.047880936 0.036123846 0.044665787 -0.044277 -0.0038086176 0.028293539 0.015767839 -0.00054899603 0.028249633 0.0043675676 -0.011342455 -0.031143595 -0.0210356 0.0026919618 -0.008587815 0.039767098 0.00090027973 -0.016191997 -0.033097826 -0.022617877 -0.033255592 0.015814435 -0.022309972 -0.048954356 -0.03882637 -0.030592179 0.032895673 0.006328881 -0.04227469 0.02016649 -0.04920703 0.04217783 0.025765423 0.0456192 -0.0260432 0.045886222 -0.019296408 -0.045170188 0.043620232 0.003664732 -0.015807271 0.006468009 0.0077319853 0.028523874 -0.049723115 0.028168354 -0.011044215 0.0020963177 0.03754833 -0.045472026 -0.0034474507 -0.009699464 0.0393016 0.010081757 0.04889408
serial -0.03465668 -0.023697603 -0.030941939 -0.04471884 -0.034406077 0.01640639 -0.045946516 -0.02330407 0.0016085729 0.04784498 -0.025213528 0.018335734 -0.04457246 -0.04323963 0.0015531294 0.02242912 0.029229257 0.0028559342 0.04940858 -0.030757535 -0.041232787 -0.033353046 0.010278892 0.01890472 0.0028257258 -0.00885706 -0.0033430345 0.04636692 -0.03956293 -0.04609554 0.04637331 0.03514901 0.014926139 -0.007874049 -0.009538077 0.04077183 -0.020206118 -0.00579058 0.031311657 -0.006200433 -0.008505691 -0.0021982566 0.01976743 -0.046523727 -0.0119199045 -0.025294388 0.042133477 0.009183276 0.031711232 0.013481449 -0.036111213 0.007703375 -0.04787716 0.04329891 -0.008269727 -0.0150045045 0.02645645 -0.032002166 -0.030617619 -0.004173994 0.011455476 -0.041133355 -0.045392957 0.019033503 0.0070763715 0.00640925 0.04379246 0.012632195 0.044443358 0.017699782 -0.024060642 0.033189107 -0.030672014 -0.038338255 -0.013323821 0.01914369 -0.02584591 0.02949356 -0.03686118 -0.04326209 -0.04249326 0.022922706 -0.03728936 -0.046172228 0.015267137 0.0112860575 0.0028150082 0.039171945 0.03966633 0.021283116 -0.01606407 0.041646663 -0.027668118 0.021246921 -0.03294398 -0.015031077 0.038075637 -0.023590004 -0.017930735 -0.00496142
interval -0.029084075 0.04606824 -0.003939856 0.0074780956 -0.014179505 0.04539739 -0.034128666 -0.048683014 -0.0048600063 -0.004810106 -0.035909962 -0.03095491 -0.038700342 0.018985275 -0.022882318 0.04943985 -0.048277568 -0.02721926 -0.049531724 -0.049000155 0.0209545 0.043796685 0.025623325 -0.047237873 0.004163325 0.025000188 0.0030558333 -0.035233714 -0.044208575 0.02600244 0.02702118 -0.047439612 -0.036116205 -0.047871318 0.03569151 -0.011571787 -0.046256613 -0.0030850656 0.036997404 0.02237134 0.038740624 -0.009705555 0.011912979 -0.029409444 0.03649017 -0.015208244 -0.02549441 -0.04643328 -0.04789355 0.01981664 0.00015646219 -0.0005020723 -0.010321379 -0.0093786605 -0.049451828 -0.03280803 0.023273539 -0.04861567 0.042064797 0.04550186 -0.04896163 -0.0113920085 0.011396408 -0.026867652 0.019940246 -0.04328561 0.02959228 -0.01167842 0.021728408 0.045945596 0.0053796396 -0.032062016 0.014680091 0.019852545 -0.026556743 -0.011682011 0.035763253 -0.045376003 -0.022701789 -0.011298548 0.0075185895 -0.009877361 0.009088196 0.015060399 -0.030009402 -0.04033499 -0.017564941 -0.0059056394 -0.006967377 0.0046935305 0.0043612607 -0.036986865 -0.027599229 -0.021025492 0.048533726 0.022721004 0.01967362 -0.0029012077 -0.004282903 -0.032157674
than -0.023601605 0.003634058 -0.044631172 -0.024624169 -0.023864448 -0.047315836 -0.015254952 -0.04839463 0.003565956 0.0058089867 0.023032758 0.009981535 0.03468821 0.04196893 -0.037741996 -0.046421852 0.0059605017 -0.04172157 -0.013063811 -0.042331435 0.032739412 -0.0031781793 0.032682803 0.04575971 0.0106594935 -0.009135164 0.0064167157 0.025047626 0.011343084 -0.0009724386 -0.03016826 0.029353809 -0.031997643 0.01916175 -0.01282208 0.010245156 -0.02219211 -0.038420238 -0.011590838 0.029593144 0.013173331 0.045764003 0.037317883 -0.044703748 0.0050477274 0.0066867694 0.040073004 0.010036647 0.0495564 -0.004655242 0.0072342977 -0.009994876 -0.006373428 -0.037850928 -0.024586415 0.019543234 0.014191631 0.04058527 -0.029530907 0.0010809898 -0.00020410866 0.028330792 -0.04876497 0.042403664 -0.035327293 -0.042966317 -0.0073572285 0.03087325 0.017742526 0.049901772 0.04379194 0.022665624 0.015374269 -0.044004705 -0.0050730594 -0.02648126 0.027396504 -0.040129434 -0.0074428096 -0.013378121 -0.042625155 0.030279484 -0.038526498 -0.0045074336 -0.018689312 0.011034645 -0.03917793 -0.035860278 0.019488242 -0.023957575 0.03575507 -0.03284587 -0.042549837 0.0061825737 -0.017917596 0.020118121 -0.020537509 0.01350287 0.016668085 -0.0070119724
be -0.023900175 -0.027734293 0.012815844 0.028825331 -0.046423603 -0.01156088 -0.004041195 -0.02321657 -0.04669906 -0.028397417 -0.023912251 0.044317875 -0.014586724 0.024901677 0.0084631555 0.037609432 0.049344603 -0.0016596317 -0.024421906 -0.034592737 0.021803986 0.01841816 -0.0012375228 0.018618252 0.027186941 -0.024386823 -0.019269263 0.022419725 -0.0057324655 0.028704513 -0.029664649 -0.024168288 0.020302955 0.016944084 0.029530551 0.009644926 -0.015569437 -0.04480443 -0.02126335 0.016743805 -0.004722677 0.0221905 0.024460677 0.035086777 -0.0023300275 -0.020052994 0.048789944 0.013993766 -0.045799553 0.0081426725 0.011260331 -0.014798544 -0.025115848 0.019605849 0.02346206 -0.034520555 0.045993153 0.016556654 -0.003292583 -0.026843524 -0.038345553 0.0017585754 -0.047961008 0.0013092048 0.010591578 -0.042526163 0.008471262 0.039329756 -0.036461532 0.03691827 -0.021179175 0.036341082 0.0009557232 -0.0347867 -0.010461379 0.007871069 0.02777103 -0.015601624 -0.03393034 -0.0151996985 0.023664225 0.033692252 -0.036204886 -0.033546258 -0.04709232 -0.038536776 0.0073602684 -0.023336459 -0.013661671 0.04473326 -0.012669157 0.029201996 0.04434898 0.020701613 0.047694612 0.0041324273 0.046626594 0.017790686 -0.022049094 -0.033437885
5 0.04802339 0.015946481 0.010918237 0.045549933 0.049070526 0.010217033 -0.036200225 0.0028745756 0.03600203 0.042170394 0.041818943 0.024049532 -0.034465097 -0.029228365 0.03985003 -0.03779819 0.043255534 -0.0057886466 -0.030014336 -0.037331045 0.010381602 0.007103823 -0.031454697 -0.009299852 0.046359036 -0.023276675 0.0024881363 -0.008278191 -0.012407266 -0.040857326 0.02507564 -0.0455814 0.047655765 0.016459059 -0.00641793 -0.049809314 0.04849908 0.01771022 0.03479291 -0.02680912 0.009390771 -0.0037467703 -0.018544506 0.032019626 0.012515638 -0.047874738 0.022734191 0.0030204058 -0.0019425526 0.043875065 0.009345554 0.026758362 0.032312725 -0.043337047 -0.00087832287 -0.040044405 -0.008373998 0.00040926784 -0.03830086 0.040814247 0.01964936 0.012792852 -0.0036334507 -0.015576579 -0.047478523 0.023769107 0.002818536 -0.042746592 0.0033081286 0.044020604 -0.021487141 0.0035893805 -0.009623874 0.018368486 -0.0056513064 -0.04317217 0.017357241 -0.015818633 -0.011346601 -0.020508314 -0.011477791 0.03880627 -0.025439536 -0.0403046 -0.035182822 -0.010987449 0.013769057 0.011063732 0.048803065 0.0254024 -0.031842172 0.046909 -0.024238264 -0.011584282 0.039566074 -0.03514316 -0.007482946 -0.032084905 0.03769834 -0.04656681
days -0.03757856 0.015940737 -0.010130607 -0.0005909577 -0.03067937 -0.007104922 -0.0108684525 -0.04514985 -0.028429365 0.048903253 -0.002808869 -0.04418781 0.041172814 0.030947331 -0.0051558614 0.030804101 0.020171557 -0.02761873 -0.015826859 -0.032380164 0.024698582 0.016838204 -0.016745735 -0.023206508 0.04676387 -0.031109167 -0.021104682 0.0067058913 0.04946555 -0.0422709 0.020235624 0.0036664493 0.015433755 -0.025788903 0.024851274 -0.0044206865 0.029999163 -0.039147865 -0.032919265 -0.013647009 -0.048706293 -0.043585446 0.042852495 0.0038637407 0.006705772 -0.03042065 -0.0050879493 0.0033961423 -0.03985679 -0.015958488 -0.04866154 -0.030867398 0.026476089 -0.03487904 -0.019513154 0.03742386 -0.029996967 0.024084594 0.040999684 -0.010094605 0.003555011 -0.034704246 -0.029327428 0.009688139 -0.007835556 0.003795825 0.01632804 0.03311575 -0.030017352 -0.028777529 -0.0095709935 0.041003373 0.044049177 0.047657896 0.0026243106 0.0021754727 0.034102682 -0.03486364 0.03851192 -0.015015651 0.040000524 -0.011750661 -0.04983003 0.005556751 0.0069013014 0.0023314133 0.023617078 0.044780005 -0.04072547 0.005910147 -0.036160983 -0.005294226 0.019020353 0.02928305 -0.04914409 -0.007199656 0.0040483586 -0.012483537 0.04246309 0.0299577
– -0.04016769 0.044215564 0.008078527 -0.039500736 -0.012372173 -0.0025569089 -0.0043679588 -0.01085775 -0.03956654 -0.032958485 0.0045784935 -0.005557202 -0.014881838 0.020751406 0.03668845 0.018477265 0.03913797 -0.017801128 0.03450102 -0.022667278 0.04232836 0.044085626 0.008957136 0.026580501 0.037058342 0.023257267 -0.0056384206 -0.03486327 0.019066188 0.048310127 -0.010006167 0.029357377 0.009957958 0.026944052 0.046588782 0.0002294071 -0.026304973 -0.04076159 -0.014414955 -0.048818458 -0.023198271 -0.030579854 -0.02444364 -0.009706747 0.007912479 0.012232579 -0.041895032 0.0068211444 0.0005296692 -0.03339498 -0.016296886 -0.048401654 0.049571756 0.034782026 -0.016059421 -0.04549128 0.024510827 0.03730983 0.045891356 -0.029889047 0.0025821216 0.0067729726 0.010085154 -0.0047840104 -0.022932565 -0.02372328 0.0067893155 0.010389946 -0.021041835 0.018700432 -0.019880844 0.04037461 -0.010497831 -0.031369165 0.013628017 0.032120112 -0.04806893 -0.034606136 0.01260196 0.0043974295 0.022792246 -0.04796344 -0.035572134 -0.0039500482 -0.022953749 -0.0018054359 -0.009800278 -0.0407375 -0.018206276 0.035782192 -0.0476555 -0.04409268 0.04511619 0.009213876 0.009877611 -0.035226643 -0.016479027 -0.037618242 0.03140572 -0.047377955
are -0.04487735 -0.048541915 0.013771903 -0.01669506 -0.0030677803 -0.033124045 0.042241324 -0.04268333 -0.04374174 -0.031843413 -0.04664525 0.0127729215 -0.017158162 0.003467191 0.04251579 -0.037287783 0.005372666 -0.0020362847 -0.041343056 0.024592642 -0.03845892 -0.0018526688 0.0008648038 0.039622273 0.048389163 0.020458471 -0.047174968 -0.018083453 7.325411e-05 -0.01747905 0.017393421 0.0021640174 5.841255e-06 0.044772003 -0.014397789 0.043633375 -0.008791994 -0.016810678 -0.005466353 0.046755705 -0.030986762 -0.020915294 -0.00052609295 0.027148854 -0.0066368803 0.004009448 0.02451894 0.028797772 0.012367655 -0.009817172 -0.041504957 0.04783405 -0.026516378 -0.03185846 0.0048848167 0.038974214 0.0406049 0.031167876 -0.015344836 0.01791576 0.021158863 -0.049118437 0.03388336 -0.026993895 0.014156524 0.0132035725 0.024537612 0.004394125 -0.033110738 0.045798946 0.044398975 0.048309613 -0.044370234 -0.029134309 0.022846747 0.01811618 -0.046479225 0.03396484 -0.037029754 0.038007382 -0.0014109984 -0.005922459 0.023290921 0.0014424808 -0.026348162 0.02858888 -0.023708655 0.002463676 -0.026155282 -0.04483166 -0.0037042014 -0.029195165 0.048858892 0.017473485 0.043144 0.046603467 -0.035954095 0.040478054 -0.0050599687 0.0010973215
viruses -0.011838365 -0.02146324 0.0151201375 0.011896372 -0.041068792 -0.035982203 -0.001862634 -0.03236171 0.020096768 0.03618553 -0.044832446 0.0119257085 0.0036202185 -0.018429447 0.018711302 0.048655633 -0.0019402504 0.008928619 0.03794339 0.03676874 0.04790524 0.04843116 0.021301616 -0.0038235076 0.01496103 0.031930137 -0.02021805 0.016565133 -0.03619064 0.036649313 0.022413645 0.01115042 -0.02507863 0.03740457 -0.036322378 0.042923603 0.032721493 0.028099228 -0.022845471 0.040420566 -0.008995019 0.010567866 0.024370302 0.028507698 0.013490293 0.00964687 -0.040923785 -0.0064264424 -0.033591807 0.040977906 0.033291984 -0.032083727 -0.031172251 -0.0075416937 0.043549452 -0.037173532 -0.009729229 0.0180876 -0.011253059 -0.018595256 0.004708279 0.014518622 0.021307934 -0.025529468 0.012179244 -0.023047805 -0.01848049 -0.009588588 0.03631213 -0.040402234 -0.0029090866 0.03375535 -0.04045893 0.031057443 0.010646202 -0.042626273 -0.009684227 -0.03380481 0.042763103 0.022484493 -0.03556483 0.010769688 0.008655857 -0.005400218 -0.028627753 0.04831766 0.03944547 0.028714787 -0.048254766 0.015579905 -0.008008085 -0.04716444 -0.046597827 -0.047380902 0.00290028 -0.043916 0.02272484 0.04075439 0.023014013 -0.0069049597
shorter 0.007978581 -3.0435622e-05 0.026141752 0.045627784 0.0020643957 -0.020872487 0.045771506 -0.014703058 -0.022386169 -0.0078011267 -0.013097655 0.026370194 -0.014363825 0.02814963 0.015981767 -0.0149481185 -0.023348724 0.024358634 -0.04704411 0.04724467 0.022231225 0.033505235 0.0385356 0.049169872 0.0024499297 0.02853186 -0.015169691 -0.012004279 0.03482372 -0.033738602 0.0030281767 0.023576442 0.024804521 -0.0384027 -0.047412314 0.043024186 0.010550845 0.0123597495 -0.040828608 0.04910818 -0.045014095 0.02360734 0.008509804 0.010717273 -0.025530517 -0.026100565 -0.027331686 -0.022994125 0.029125381 -0.04657955 -0.0057134144 0.034340333 -0.009214748 0.026794348 -0.038355935 -0.031577073 -0.012033261 0.027285706 0.042156707 -0.013332117 0.04684842 -0.021003736 0.040853824 0.004613042 -0.016493607 -0.0060123205 0.042788867 0.02023435 -0.006391585 -0.042241216 0.044628922 -0.013997126 0.036376026 0.046786513 -0.028155137 -0.047029387 -0.037932813 0.007472705 -0.012121309 -0.03487735 -0.009100545 -0.023586465 0.042960618 0.012646545 0.029583167 -0.036683153 0.014419679 0.013229396 -0.0011781827 0.037632894 0.048227575 0.032751765 -0.0006313436 -0.036553323 0.01874793 0.018496204 0.049677048 -0.027387727 -0.036280513 0.002639532
from 0.0013429038 -0.010450326 -0.033716217 0.013670873 -0.022125995 -0.026226092 -0.011228312 0.024813 0.04920764 0.017613862 0.034003448 0.0022355914 0.0062114224 0.030499253 -0.00942836 -0.005679868 -0.02152443 -0.043976188 -0.032909334 0.021926153 0.0015700348 0.042808954 -0.019696308 -0.0015801676 0.020604376 0.021446358 0.016358826 -0.046757292 0.004791893 0.006173443 0.0043014996 -0.006134998 0.022041049 -0.030635834 0.032655146 0.03781439 -0.014086269 0.0026826486 0.007993676 -0.009879362 -0.02617091 0.038160387 -0.017775107 -0.012125861 -0.016349245 0.04299395 -0.009693958 -0.03840517 -0.038966 -0.0027449727 -0.00037815422 0.022461664 0.03712349 0.037028853 0.023924861 0.029938769 -0.0034514181 0.036813322 0.018984724 -0.019876635 0.0014252439 -0.02857603 -0.0052461512 0.0060048103 -0.0041684993 -0.037759997 -0.04965322 0.024860892 -0.026998652 -0.0211931 0.00225259 -0.04222647 0.039998207 0.0043233745 0.0154305585 -0.019906271 0.031827305 -0.027010644 0.032637704 -0.024845922 0.03075545 0.03967489 -0.0168926 -0.035336625 -0.029975737 0.035034444 -0.023861457 -0.00983287 -0.02035935 0.03640953 0.004565228 0.041152034 -0.03364154 -0.042181205 0.03961471 0.0027833208 -0.02597419 -0.040839564 0.04304583 -0.045461904
appearance 0.021720339 -0.024145305 -0.034363113 0.025854778 -0.035442043 -0.03759726 -0.040139686 0.026461016 0.0003026612 -0.03510777 0.030558791 0.014195446 -0.01359608 -0.03806907 0.02626982 -0.005140055 0.042953324 0.0077551976 -0.04499612 0.01585308 -0.025706543 -0.023641312 -0.012344766 0.021445122 0.008210458 -0.032302402 -0.03942163 -0.035684727 0.018079553 0.043039706 -0.04786712 0.035592448 0.041425895 0.04410846 -0.024092807 -0.001570046 -0.0186239 -0.009520434 -0.036817886 -0.030902017 0.01854882 -0.026792979 -0.0054903515 0.0302434 0.022660699 0.034167696 -0.03259883 0.043619458 0.0007712245 0.0009876974 -0.014555812 -0.03575921 -0.03384898 -0.047053456 0.030894402 -0.011482358 -0.017511021 -0.0025754087 0.02243935 0.01920027 -0.046701577 -0.031871155 -0.038404144 -0.03431647 -0.023207176 0.04493915 -0.025734758 -0.013453223 0.011807252 0.022045005 -0.006228626 -0.020391976 -0.025676776 -0.0052746534 -0.04600003 0.028254297 -0.04158876 0.03917641 0.04772443 -0.0074387565 0.01623628 0.04722916 -0.03987 0.03296223 0.018799495 -0.0060853586 0.028618399 0.031510163 0.03165995 -0.00490899 -0.029504716 0.04443332 -0.019801987 0.020924125 0.04863799 0.0439204 -0.03562019 -0.011156071 0.018502329 0.007016897
symptoms 0.034258533 0.00053492934 -0.023258794 0.028672133 -0.01734674 0.038244057 0.038017128 0.024883773 -0.03185313 -0.014954545 0.004132606 0.0016921163 0.019471895 0.045527164 -0.041589845 0.04935353 0.00024824217 0.027244333 -0.014939152 -0.0076682456 4.0579587e-05 0.014127258 0.04925647 0.045790557 0.027093027 0.034402702 0.023692515 -0.023595965 0.04361396 -0.0022709258 0.024568949 0.012764934 0.011087548 -0.04147327 -0.02050153 -0.024844766 -0.034511995 0.024678495 -0.030018246 -0.03374739 -0.010472368 -0.03941412 0.01731855 0.02553146 0.033579398 -0.016339265 0.0043284893 0.01980925 -0.010847509 0.03286654 -0.00120629 -0.000864923 0.015454356 0.01650386 0.014683161 0.015106153 -0.03527733 -0.005010914 -0.036458947 -0.014072049 -0.01314652 0.020434882 -0.049275875 0.040583577 0.02444357 -0.04662272 -0.023416137 0.037829403 -0.0027454384 0.017134044 0.04803573 0.008602977 0.027748588 0.038304698 0.049936604 0.036550414 -0.018985916 0.0044260025 0.006818544 0.0339653 0.03345802 -0.028743137 -0.008673705 -0.007944085 0.03597823 0.02216706 -0.010540403 0.006293379 -0.0157369 -0.03493925 -0.045370042 -0.043506097 -0.03464655 -0.0213758 0.044547472 -0.031629644 -0.0005604252 -0.007192932 0.04752144 -0.0059288032
while -0.037627615 -0.004914403 -0.026198924 -0.019811869 0.034574162 0.023462746 -0.039597165 0.044406418 0.011201061 0.0070338733 0.008433126 -0.042206265 0.02104764 -0.0130935535 -0.008504905 0.021566603 0.04886662 -0.0005321726 0.0003501065 -0.034759678 -0.024950778 0.005678378 -0.047405016 -0.0279791 -0.013764702 -0.039694916 -0.028055942 0.016516898 0.01913612 0.031891074 0.03094938 -0.047649957 -0.0009747036 -0.008613218 0.027838256 0.021967936 -0.041646946 0.04343721 0.04114485 0.03550755 0.015500914 0.044486295 0.014206503 -0.02830472 0.03394169 0.010589324 0.04948092 -0.020431329 0.009040058 0.0481343 -0.031448603 0.03730377 -0.03464959 -0.026965356 -0.0079415925 0.046428706 0.030175809 -0.041292153 0.03553888 -0.02347262 0.013577368 -0.02886579 0.020959381 -0.0064010844 -0.040257074 -0.04186671 -0.004249692 0.04577222 0.0021599047 0.00071156025 0.04047055 -0.03562517 0.0016852021 0.020059157 -0.032455422 0.04290447 0.03064594 -0.041612793 -0.0011675246 0.027869452 0.029060852 -0.0035241358 0.04461309 0.043220628 -0.025003148 0.04602729 -0.020612597 -0.033864893 -0.047023166 0.03223944 0.0081294775 0.033633176 -0.04611684 0.020018745 0.022914913 -0.026470948 0.004692495 0.029262353 -0.024651503 -0.041032933
3 0.031009797 0.028560806 -0.02892456 0.02538756 0.021288108 0.03968564 -0.0036828406 0.0057581663 0.027758006 -0.011576783 0.034322012 -0.02873652 -0.019335914 0.023845319 0.0060503 -0.039263904 0.045599233 0.0017002001 0.048194636 -0.01701944 0.002932895 -0.03065939 -0.041742124 0.037419487 0.002361618 0.013946179 -0.01860584 -0.034762442 0.003611803 -0.0023866296 -0.01425482 0.010114588 -0.04596578 0.03389745 0.0003273487 0.0074653625 -0.041810594 0.011028551 0.048979048 -0.03478085 -0.04420345 -0.025374401 0.0062371977 -0.030622436 0.008329999 0.0040549524 -0.03366927 0.008068789 -0.0041258335 -0.022680415 -0.027320445 0.026404824 0.027239647 0.005511295 -0.008783914 -0.0043875203 -0.001288496 0.03671998 0.002600003 0.0105501525 -0.015320323 -0.030162692 2.489239e-05 0.032565583 -0.025845194 -0.018902779 -0.013053071 0.016210143 0.045496944 0.043182682 0.033675108 -0.048137616 -0.023197306 -0.029783417 0.005960487 0.04959986 -0.035641633 -0.0289441 -0.024402117 0.03134196 -0.03968036 0.044921134 0.0024012811 -0.00859182 0.032862578 0.008305978 -0.038319815 -0.038676955 0.03237908 -0.013403963 -0.010864459 0.020046543 0.013883058 0.007942103 -0.041618906 0.012274325 0.03532586 -0.003170669 -0.00942428 -0.017999373
this -0.0112653 0.01581693 0.03493837 0.0068345293 -0.04508872 0.04920386 0.03278139 0.029044356 0.021105472 -0.03526963 -0.024525035 -0.030220091 -0.037471868 -0.009394646 0.016197313 0.03410243 0.01571313 -6.8701804e-05 0.023186479 0.047843207 -0.028326726 -0.013691962 -0.03174131 -0.039575387 -0.0495942 0.04392607 -0.035842933 0.015838567 -0.03607427 -0.014895141 -0.015536021 -0.038685106 0.042550754 -0.023557378 0.0010288842 -0.011739753 0.022264723 -0.02764771 -0.0037422404 -0.023303771 -0.032618716 0.008548774 0.0006063096 0.024322104 0.016859118 0.03892192 -0.040148843 0.006911479 0.0020844452 0.008215509 -0.016874552 0.01043544 -0.0181172 0.04871254 0.007683467 -0.0055151097 -0.021469926 -0.047652494 -0.034972895 0.030156817 0.042954694 -0.017401088 -0.0416551 -0.024200797 0.013808873 -0.0005084984 0.040532198 -0.02895782 -0.013344526 -0.0356076 0.010879386 -0.0197186 -0.02217703 -0.022681177 -0.03618592 0.0082286 -0.013544023 -0.00020499155 0.027081612 0.0036715865 -0.023562158 -0.040637232 0.030009124 0.036689747 -0.007659614 -0.032321893 0.027192805 0.01923472 0.026852373 0.027848039 0.019402806 -0.034730148 -0.033411194 -0.015002228 0.03431126 0.019735146 -0.027908338 -0.04368652 -0.047639906 -0.025910128
that -0.02546512 -0.0062998906 -0.028702414 0.028759826 -0.044990327 -0.020156002 0.009242427 0.04117663 0.037998203 -0.041971255 0.048496556 -0.01479708 -0.026947666 -0.03245441 -0.049014784 -0.037518047 -0.026680816 -0.015060019 0.037246738 -0.030686522 0.043138575 0.014555488 0.027213562 -0.004783869 -0.035133027 0.04210614 -0.044108775 -0.018116139 -0.032291234 -0.018083118 0.045722414 -0.0013576634 0.029215995 0.031561207 0.04470438 -0.028270388 0.046161857 0.04385655 0.032829735 -0.032493103 -0.027812183 0.047763873 0.008426547 0.036489215 0.04138733 0.042606663 0.014834169 -0.04265343 -0.030843152 -0.039334536 -0.031127824 -0.040292095 0.035494898 -0.019750679 -0.026416803 0.026329104 0.029912699 0.04612806 0.025012586 -0.040255737 -0.039047815 0.04072878 0.013821732 0.00930693 0.027386319 0.03332324 0.03567877 -0.0043227896 -0.030291652 -0.025491858 -0.049015917 0.042451847 -0.015724458 -0.032664917 0.0412143 -0.023283744 0.042194698 0.023277234 -0.025823582 0.010824919 0.010748126 -0.046509635 -0.029753769 0.035923157 0.035040904 -0.04151865 -0.009660114 -0.025432646 0.04088116 -0.027595032 0.0106856115 -0.02048546 -0.033316195 0.0028036349 -0.024784638 0.0045134425 -0.0070958734 0.025896516 0.0295359 0.015425745
can 0.03813151 0.00044976547 0.022584941 -0.030690527 0.038856935 -0.03309729 0.030126635 -0.017547347 0.015248027 -0.024492145 -0.020079577 -0.01878792 -0.044983566 -0.03113736 0.032337774 0.015540484 -0.031212926 -0.017133545 0.023501504 0.041255083 0.027859937 -0.014764201 0.026800107 -0.017668068 0.013918113 0.016101126 0.0016001575 -0.013964463 0.04245181 0.04711658 -0.044130635 -0.040281963 0.020844664 -0.0445439 -0.03100009 0.0057090893 -0.026122047 -0.038339056 -0.03169187 0.011436593 0.0088713765 0.026292276 -0.00377319 -0.0083837025 0.027155224 0.04641987 0.0025940314 -0.019408597 0.043044318 -0.005918335 0.017938588 -0.011446618 0.04820429 -0.025695324 0.024319414 0.0042895675 -0.02954036 -0.04166746 0.03192118 0.01354691 0.00345888 -0.033293746 0.031068753 0.039276276 0.027023945 -0.021549178 -0.002728831 -0.04847392 -0.022521103 -0.03814608 0.007531069 0.031176273 0.0012128241 0.023812007 0.003655292 0.0054570213 0.020487178 0.004940439 -0.04048871 -0.02074523 0.013373639 0.03683496 0.023684133 -0.004652716 0.020968031 -0.040080212 0.029555548 0.049131047 -0.03294851 -0.022986317 -0.011216857 -0.024941325 -0.012979627 0.00565958 0.005315196 0.015767489 -0.014545023 -0.012806643 -0.009318531 0.045708302
in 0.031619165 0.00286014 -0.030611813 0.009796858 0.002397906 0.0355565 -0.027960693 -0.009783842 0.026298258 0.013003718 -0.012104295 -0.005306769 -0.006000031 0.010675956 0.0019953847 -0.042486634 -0.026266027 0.01683433 0.040036652 -0.005008243 0.014812361 -0.0017848611 0.022466514 0.024997924 0.0496887 0.038984705 -0.014841236 -0.017176963 0.016782667 -0.035073508 -0.005826425 -0.03773451 0.03956658 0.047011662 -0.04731828 -0.036617078 -0.022578109 0.010466885 0.019573342 -0.0062211975 -0.01949296 -0.03129827 -0.015055526 -0.036113154 -0.0044287927 -0.002309464 0.04671741 0.020627681 0.046609942 -0.037652444 0.008146655 0.025442455 -0.009952556 -0.037754964 -0.02885561 -0.015711118 0.026275907 -0.03971956 0.022926334 -0.01774329 0.03280068 0.039426457 -0.022438515 0.025691006 0.009108663 -0.006250821 -0.012617171 0.030012418 0.01872978 0.033921722 0.013965931 0.029184196 -0.048587322 -0.047267582 0.0402159 -0.04713824 0.025688384 -0.0028512366 0.011206437 0.0016703382 -0.028968085 0.032073323 0.020805623 0.047536913 -0.03849827 -0.010999262 0.0372154 -0.041826952 -0.023764933 0.045834903 -0.030994559 -0.03844049 0.0191635 0.0023521408 0.04122262 -0.008014668 -0.00011076778 0.037013713 0.030211952 -0.043209102
major -0.03818073 -0.0016738996 0.048025284 -0.014878262 -0.037547767 -0.019978976 -0.014109649 0.0018955469 -0.008324992 -0.04171895 -0.04376173 -0.025894225 -0.04634087 -0.003442455 0.013980243 0.043705013 -0.0040098056 -0.039614998 -0.020101178 -0.04396665 -0.0063092597 -0.034781527 -0.030153632 -0.039361883 0.02479491 -0.024108518 -0.030436516 -0.010157287 0.023852397 -0.034311198 0.014583681 -0.04341892 0.029505048 0.0001758337 0.025981534 -0.030017186 -0.016074158 0.030878987 -0.043723524 0.030169811 -0.03209535 0.00060162693 -0.00587051 0.009599768 -0.0127590075 0.04678284 -0.02834723 0.03815336 -0.015652131 -0.025951577 -0.0073746666 0.02506787 0.024329688 0.047215533 -0.0043133125 -0.029172588 -0.013561882 0.021278154 0.04180595 -0.024154937 0.04693282 -0.020324934 -0.03667319 0.014057841 -0.036102414 -0.036394823 -0.023035873 -0.03513342 -0.039662503 -0.03625413 0.04359057 -0.037745416 -0.0226596 0.013680432 -0.009834707 0.020181384 -0.009403966 0.04209235 -0.03604467 0.018804219 -0.018958438 -0.030251611 -0.031436704 0.03946549 -0.00873692 0.04463232 0.0012401566 0.03099284 -0.0011362657 0.043129098 0.032099914 0.04190482 0.010964692 0.023231175 0.048169006 0.0418987 -0.006397497 -0.048378672 0.04334152 0.03221691
driver -0.009811915 0.008160137 -0.041223895 -0.021986378 0.015445922 -0.04795984 0.013345886 0.026240733 0.030307721 -0.00831715 0.008044314 -0.04348451 -0.011829875 0.013997961 0.013504636 0.0024512038 0.00028087944 0.046839405 0.009082437 -0.020826042 0.009822022 0.03514233 -0.03236206 0.0047835484 0.0076341256 0.04407109 -0.02944007 -0.03268192 0.0041548833 0.010944068 -0.018909395 -0.032139026 0.042661373 0.020803008 0.012982015 0.032072555 -0.04031781 0.017845336 0.02731726 0.048020545 0.037905287 0.014713649 -0.02121656 -0.015411068 -0.025426805 -0.00604428 -0.044478416 0.03187004 0.042647395 0.0469271 -0.025720287 0.027966682 0.0038106218 -0.031596266 0.023708228 0.017965999 -0.0094408505 -0.043964542 -0.04279337 -0.008454025 0.0011317842 0.024413753 0.0455592 -0.034751523 0.029954184 -0.037060082 -0.047660746 -0.04727106 -0.013733327 0.043040182 0.003937222 0.043184284 -0.045196403 0.049134564 -0.041050732 0.029722001 0.018280748 -0.04301847 0.04626694 -0.034192696 -0.04551177 0.015079211 0.013700474 0.009435512 0.023260307 0.041723635 -0.007560443 0.009431232 0.038317192 -0.022547472 -0.0032597408 -0.048606098 -0.013189089 0.029609445 -0.0018046014 -0.009642042 0.017064143 0.021265294 -0.012304854 -0.015066754
number 0.04838537 -0.038206887 -0.0014295094 0.024725962 -0.047305014 -0.0011256337 0.046019126 0.022255097 0.008990299 0.020681623 -0.03937416 0.031779673 -0.008046947 -0.03215157 0.025821988 0.019496467 0.022780683 -0.002554156 -0.0127930865 0.00994388 0.03244019 -0.010527886 -0.020713603 0.035182897 -0.00076718256 -0.04302938 0.031344425 0.014410902 -0.00050854683 0.046816017 0.03947575 0.00943657 -0.031481124 -0.017980706 0.012811672 0.00838393 0.0032287836 -0.0025696382 -0.039520957 0.010677397 0.03407296 0.030395117 -0.022692217 -0.0307608 0.023555327 0.028732326 -0.046337213 0.048389923 -0.021575738 -0.020176267 0.04886632 -0.027178109 0.03342965 0.03501189 -0.027961088 0.0030614138 0.025245216 -0.038338114 0.021710325 0.0032375567 -0.03533542 -0.046320166 -0.023304118 0.044068027 0.039088193 -0.041083716 0.016975533 0.01160717 -0.0056197867 0.034007158 0.011575531 0.04020902 -0.003645502 0.04602175 -0.04793016 0.0035635233 0.008401908 0.03666756 0.015250709 0.020476941 0.0114825 -0.023592938 -0.04496255 0.004450895 -0.010553576 0.03423773 0.013962064 -0.00058748573 0.013061825 -0.007247556 0.047293175 0.03136531 0.031028476 0.04793937 -0.048234593 0.004676424 -0.019250501 0.007933654 0.012939278 0.03426819
2 0.010212708 0.021146405 -0.03277155 -0.018439233 0.026436698 -0.04230672 0.032913875 0.042061213 0.020224106 0.007795669 0.017033864 -0.030430997 0.0070771575 -0.024672342 -0.0033990256 -0.04633447 0.005472947 0.014983978 0.042603735 -0.018354475 -0.038906954 0.041660096 -0.028431213 -0.011480857 0.041648652 -0.034670424 -0.02419709 -0.042867076 0.032533016 0.014723193 0.047507655 0.023880448 0.036824588 -0.030226005 0.02186874 -0.035964 -0.037557293 -0.034965407 -0.035520326 -0.0018015876 -0.03855331 0.011634301 0.027146842 -0.018669285 -0.030847251 0.006118916 0.027015004 -0.04732541 -0.03448107 0.00093422085 -0.003218852 -0.03959353 0.023747254 0.009121288 0.007104624 0.04224429 0.020727862 -0.01938554 -0.013616823 -0.047441054 -0.013623249 0.023039807 0.019540135 0.030227546 -0.04625374 0.012291264 -0.023274804 -0.045719218 0.021146405 0.00855137 0.012528967 0.0003326647 0.03373624 0.0021142364 -0.021894623 -0.04949248 0.0157164 -0.005911123 -0.049976744 -0.044473063 -0.03722055 -0.036584783 0.022712935 -0.021534933 -0.04966053 0.020667922 -0.018306743 0.029833343 -0.03349811 0.0036613941 0.046805236 -0.04116882 0.042109262 0.00097391754 -0.04435724 -0.018502105 0.025252271 0.03781234 -0.033266447 -0.013230421
speed -0.048505094 0.008992851 -0.04907098 0.0124060735 0.005439557 -0.048785485 -0.001608409 -0.040029503 -0.044888604 -0.024415076 0.044868793 -0.026180638 -0.032093085 -0.019478584 -0.028219594 0.016951587 0.041227523 -0.0066602603 0.037313532 -0.016194023 -0.040830314 -0.011529636 0.02734765 0.0023545139 0.039108817 0.017073367 -0.007395696 0.0021687523 0.0092428215 -0.010277949 0.013161663 0.04730803 -0.046949603 0.042428914 -0.034597658 0.04509506 -0.040656745 0.024332915 0.03436431 0.03334919 0.034256365 0.008638285 -0.02775054 -0.031625725 0.0165005 0.033268575 -2.1018088e-05 0.026402246 0.028477643 -0.02663194 -0.037003506 -0.007636357 0.011624239 -0.04440987 -0.045126807 0.0010886416 -0.029732144 0.048864927 0.044912245 0.0044717677 -0.04534037 0.024886552 -0.015668165 0.0030706152 -0.04318122 -0.029433204 -0.029849662 0.00029958412 0.035460744 -0.01001557 -0.0013065934 -0.02762915 -0.016664635 0.040061545 -0.0003538616 -0.03100766 -0.009031691 -0.025712347 -0.04470569 -0.025879337 0.03505869 -0.004386723 -0.008600831 0.027198162 -0.018358827 -0.029261375 -0.004684828 0.012974706 -0.01751287 0.039126907 0.03700043 -0.00085132197 0.016208027 -0.016894866 -0.02989837 -0.011029363 0.013605449 -0.01334523 -0.015309643 0.009076439
an 0.019856546 -0.031006837 0.032596778 -0.021465719 -0.0010598414 0.02692845 0.04217055 0.040444445 -0.017065763 0.033790875 0.015276227 -0.011484873 -0.04557046 -0.017526112 0.04824649 -0.0051289685 0.044875707 0.048678968 0.03461859 0.03141273 -0.00082987547 0.04881612 -0.03658365 -0.008105695 0.021167103 0.024764765 -0.01664213 -0.0031242967 -0.03546542 -0.029278576 -0.044980504 0.04375771 -0.014639962 0.011784483 0.003963493 -0.039140128 0.013365593 -0.03409139 -0.024004592 0.04726472 -0.033939257 0.0287964 -0.031466857 -0.04857142 -0.0330533 0.012699749 0.0067191496 -0.022028303 0.04259726 -0.02770611 0.046204913 0.0447171 -0.03975899 -0.009283923 0.010069869 -0.025929201 0.0236446 -0.0002191551 0.023732152 0.034464408 -0.010822929 -0.018654943 0.01145364 0.0017942898 -0.0006300323 0.042011704 0.042343263 0.0056565516 0.044914376 0.029446471 0.012651596 -0.02201916 -0.0005230792 -0.023939503 0.015946414 -0.0097693205 -0.033848334 0.011067402 -0.02661091 0.019233476 0.004215516 0.011898182 -0.039921783 0.00084607676 0.0010579117 0.022569288 0.049136665 -0.028381635 0.030975867 -0.04675144 -0.044550337 0.017245423 0.043479387 0.025757853 0.039931748 -0.030388331 0.014891777 -0.02351798 -0.038332976 -0.028054405
important 0.007667102 0.044577446 0.015323389 -0.013728 -0.006386172 0.026172195 0.007998992 -0.047265183 -0.010307193 0.032812778 0.04450473 0.03362498 -0.04495082 0.00019298866 0.019276928 -0.006786894 -0.042883575 0.022614483 -0.047312737 0.027063038 -0.003084518 0.041304145 -0.013875924 0.0132849105 0.017166343 -0.034288038 0.02924085 0.01486126 -0.02114352 0.020253483 -0.0069007985 0.026632216 -0.04752889 0.03830849 0.009622801 -0.019440651 0.005018674 0.03379604 -0.0074829087 -0.020084297 0.008909501 -0.020743037 -0.004192341 0.017783154 -0.027577234 0.04530922 0.038381074 -0.03236326 -0.042601656 0.031477872 0.008460175 0.03632972 -0.037062038 -0.0030902848 -0.042429544 -0.036602806 0.003595423 -0.03475436 0.025288198 0.0036972985 0.021565799 0.004504252 -0.024529397 0.008791219 0.044782925 0.038195197 -0.034731854 -0.03583821 0.028469097 -0.03544476 0.038723815 0.048254777 -0.001958333 -0.036418222 -0.022958184 0.0114334 0.044049513 -0.017930724 -0.042518865 -0.03681898 -0.016738214 -0.007735241 0.013821606 0.02985641 -0.008457422 0.018479917 -0.018709134 -0.02984332 0.0041774735 0.032941055 0.02871013 -0.03795135 0.004249979 -0.022954369 -0.03319379 -0.02804246 0.0419101 -0.029118275 -0.02255987 0.006355714
point 0.03331287 0.018152323 0.028660271 -0.039555274 -6.514788e-05 -0.0028742068 0.043321107 0.024703573 0.044584993 -0.037372254 0.018430661 0.012505975 0.011264838 0.020439196 -0.008998942 -0.010112274 0.004252352 0.0430565 0.020758118 -0.04204955 -0.042304136 0.016028631 0.006610226 -0.020270515 -0.019178404 -0.024543667 0.01369429 0.023304466 -0.0056815036 0.044742767 -0.04192408 -0.04111725 -0.011332165 0.028812137 -0.0452245 -0.0026346818 0.015551973 -0.025254702 0.020291891 0.04626025 -0.0027732626 0.004078366 0.028164733 0.0071356185 -0.009001672 -0.027251495 0.005194567 0.036768604 0.02724785 0.008955777 -0.017262042 -0.026527846 -0.03294666 -0.021305824 -0.04331429 0.0061895363 0.0057425126 0.0017096624 -0.027615536 -0.03682246 -0.0028284416 -0.046148326 -0.048758257 -0.0023518093 -0.0058833584 0.018495057 0.04557458 0.015571598 0.028601315 0.02802584 0.032221783 0.016924169 0.033721175 0.0007702485 -0.03627286 0.049636256 0.038237777 -0.0130368695 0.00013750792 -0.015451051 -0.045514382 0.004325796 0.045709264 0.030518379 -0.017608881 0.020063948 0.028651807 -0.030690385 0.034498725 0.00074313954 -0.039964985 0.0010086522 -0.01475165 -0.03648294 -0.036733888 -0.024427414 0.045658994 -0.021425117 -0.030985547 0.032879364
difference 0.0048272237 0.009482764 -0.0051017776 0.024574075 0.04575262 -0.046525992 0.04363585 0.039989877 -0.04592638 -0.006655015 0.027555611 -0.00022482872 -0.014882993 0.013883974 0.017300073 0.00225823 -0.009985365 0.015382592 0.036395553 0.012653593 0.007329058 -0.042180765 0.039226267 -0.03944863 0.027556304 0.0026697405 0.015727926 -0.018660653 0.0018268712 0.0018505938 0.022988584 0.028683636 0.044767592 0.008942127 0.024623048 -0.023812188 0.0199502 -0.007013738 -0.037339937 0.049289893 -0.015221607 0.018575702 0.023092125 -0.042817224 0.04191334 -0.03019376 0.028639529 -0.02640207 -0.04836128 -0.043047573 -0.031454563 -0.025617814 -0.04306196 -0.0387908 0.028804544 -0.041750252 -0.04492743 -0.017667271 0.034197357 -0.00053664297 0.0020344146 -0.015554093 0.03998791 -0.030974412 -0.001888968 0.045971308 -0.0022304766 -0.022551334 0.034762595 0.0030603893 0.010190081 0.031727146 0.008122575 0.034935523 0.04507375 -0.039837755 0.04883195 -0.01010716 0.013995919 0.0049765594 0.0408183 0.012854371 0.045014028 0.022519741 0.007008575 -0.038262725 -0.02420634 -0.03147366 -0.0038228408 -0.002228938 0.04905157 0.022221934 0.025413994 0.048464943 -0.035451937 -0.0015777834 -0.042436566 -0.013222419 -0.031133687 0.008459546
two -0.010471653 0.00915445 0.0016429536 -0.021945788 0.030580211 0.046776425 0.023972545 -0.04100267 0.005428981 0.023900654 0.02409852 -0.04508103 -0.027765537 -0.027959276 -0.029811144 0.03522965 -0.048177253 -0.002980519 0.038610663 0.008711003 0.008496784 -0.03448037 0.027090695 -0.04286003 0.008643426 -0.005998887 0.0042471066 -0.0021389835 -0.032100514 0.01951022 0.026220609 -0.0064109787 0.0035760403 0.021468196 -0.02399603 -0.021272613 -0.017079651 -0.043801665 0.020974886 -0.037130773 0.027245019 -0.034747444 -0.04401163 -0.031128002 0.01987883 -0.044543695 -0.03993938 0.024533067 -0.009721648 -0.028278196 -0.008007813 -0.008256815 0.024635363 0.026541475 -0.047467567 0.004166402 0.047893535 0.0040454157 0.013282243 0.047653113 0.017445121 -0.029935075 -0.023033464 0.04969534 -0.009026766 -0.013772417 -0.042974222 0.03379265 0.020458806 -0.02394594 -0.025603343 -0.014417421 0.033594575 -0.012261737 0.041125406 0.008873321 0.006693423 0.023943994 0.010160409 0.0031473748 -0.027837217 0.042532835 0.044333946 0.010451533 -0.013440084 0.040330496 0.0039615743 0.01734462 0.024922717 0.005696237 -0.027711118 0.029672291 0.031433884 -0.044418883 0.013510954 0.02204435 0.032719646 0.00732591 0.023076903 0.036165882
has 0.010048784 0.04865719 -0.014938366 -0.01637765 -0.039743327 0.0358747 -0.023151625 -0.039266147 0.008512951 -0.027794397 -0.009253383 -0.047279146 0.011005353 -0.033059575 -0.017468046 0.048834946 -0.00019682571 0.009416949 0.009483956 -0.04951197 -0.012772571 -0.0435086 -0.019071007 0.036964502 -0.020272637 0.014781658 0.028700601 0.02774943 0.010082375 0.02545676 0.012653556 -0.023455037 0.04983386 0.0104452 0.021263454 0.046205137 0.016254935 0.005801201 0.03506683 0.0017467514 0.010302793 0.016658816 0.03923661 0.049874213 0.0014823191 0.020862985 -0.029876614 -0.00733478 0.008198332 0.042408634 0.006161403 0.04352287 -0.03658254 -0.02165692 -0.0063631535 -0.043546893 0.002226971 0.010091424 -0.02062645 -0.04390589 0.024979081 -0.03452959 0.010566413 -0.028388048 0.022845116 -0.020423472 0.013354424 -0.029835666 -0.010961186 -0.00063531473 -0.02329637 0.038145076 0.0193141 -0.02669108 0.029092398 0.02513406 0.04869571 0.0029307231 0.042529333 0.019973312 0.019366752 -0.024879087 -0.029131984 0.037892822 -0.038923133 -0.004881691 0.012538824 0.024751555 0.014710072 0.015449572 0.03580388 0.010954358 -0.029680384 0.045334462 0.01754823 0.0024707913 0.009477995 -0.010848571 0.021293823 0.034085993
median -0.03231301 0.048040736 -0.044010866 0.01713239 -0.003080763 0.040604617 -0.0061784014 0.04793671 0.04467945 0.011574257 0.023076568 -0.030817164 0.016382363 0.031237494 0.010100376 -0.046399068 0.045813527 0.0020742305 0.017767463 -0.015586484 -0.030414332 0.023205604 0.0040136464 0.040050175 -0.035717644 -0.016315423 -0.014736749 -0.005565226 -0.033070315 -0.019488668 0.034513917 0.023529079 0.027418222 -0.04133408 -0.019725276 0.041050997 -0.02365681 0.040453438 0.03186326 -0.026870107 -0.035126545 -0.006055165 0.016871262 0.028656948 0.03987271 -0.036641885 -0.027454222 -0.045811523 0.00059822947 -0.04625063 0.038460437 -0.016117167 -0.007828213 -0.023389602 0.04843695 -0.0063077696 -0.0103338845 0.00037313625 0.039711807 -0.040560544 -0.00089527294 0.04452649 -0.008418154 0.006080974 -0.04717783 0.020620797 0.029987756 0.020981263 -0.04492855 -0.03426446 0.0040407404 -0.0443748 -0.046894956 0.013586316 0.016468775 -0.04313382 0.024686303 -0.012065817 0.03604615 0.0156115405 -0.010312747 -0.04266436 0.014242593 -0.046969533 -0.020272005 -0.01787275 0.031233553 0.0138291605 -0.0025708787 0.035714116 -0.029431153 -0.026954068 -0.005239941 -0.0064027794 -0.030241776 0.005663492 0.020425487 0.046155754 -0.023106122 -0.020617628
incubation 0.021247279 0.027750302 -0.017598975 -0.020277262 -0.04337405 -0.046568908 -0.04017813 0.022785101 0.036526646 -0.021923734 0.036371324 -0.040439915 -0.005990375 0.000977885 -0.014970541 0.0034816638 0.031176057 0.037879612 -0.02385714 0.03570125 0.023775522 0.049680974 0.046124246 -0.024235344 -0.03764677 0.0037137493 0.009213649 0.022707943 -0.014262725 0.0298757 0.0046936646 -0.015484404 -0.04179387 0.009310424 -0.03799089 -0.001455389 -0.018882394 0.032023992 -0.039577115 -0.009551965 0.013455238 0.046765078 -0.04953313 -0.034610998 -0.01658056 -0.021773005 0.041626286 0.01989789 -0.01591245 0.017760146 -0.0016405471 -0.04067874 -0.016864944 0.013933707 -0.030681288 0.0045585744 0.040988658 0.039396014 -0.0036308654 0.037537817 0.03725778 -0.011693478 0.038170937 -0.006185461 -0.029158248 0.00018929318 0.02277669 0.012698676 -0.0162148 -0.0064091682 0.021924105 -0.028410757 -0.0023980737 0.03495488 0.024845276 0.048703823 0.042972934 0.04616524 0.025832023 0.03425267 0.041918185 -0.007124819 -0.008006047 0.037044648 0.019211974 -0.028239513 -0.012217842 0.023364093 -0.013457347 -0.019712126 0.009611882 -0.038196314 0.03228878 -0.024396062 0.004488133 -0.04745047 0.0054697767 -0.0035504326 -0.005575776 -0.034346424
period -0.03420277 -0.04794345 -0.004438579 0.0007677451 0.03523915 0.04377358 0.029300641 -0.014464926 -0.015429568 -0.02901355 -0.043842506 0.009524547 -0.020655215 -0.030450894 0.0105939135 0.035815243 0.017740432 -0.006303869 0.04729141 0.021817517 0.033199813 -0.017441787 0.030838277 -0.0162148 -0.04508214 -0.034660827 0.029424954 -0.003445007 0.0045000687 -0.034473766 -0.044448353 0.04595151 -0.023171663 -0.019815434 -0.011848379 -0.025598621 0.0021937005 0.036836114 0.03594141 0.007118512 -0.007032536 -0.0018106326 -0.024691332 0.0057825334 0.044019606 0.027686331 0.02263606 -0.04530698 -0.0044421665 0.036038052 0.008639585 -0.029389536 -0.021674156 0.028099325 -0.0005527362 0.04840969 0.040303815 -0.014553178 0.020039346 0.011540256 -0.0060950518 -0.021157384 -0.0020300373 0.0042118207 0.01461022 0.025561344 -0.025751878 0.022750046 0.046558943 -0.0013355501 -0.014036812 0.011648189 0.011236548 -0.002601169 0.01034819 0.00718192 -0.016829848 0.042718124 -0.03984461 0.047678653 0.035948444 -0.04892167 0.0023745075 0.012015365 -0.028238906 0.047666494 -0.015607752 -0.03203485 0.0104599 0.016249087 0.002932869 0.0048125274 -0.0367754 -0.032354176 -0.032121263 -0.044168748 -0.022376573 -0.012105275 -0.029760672 -0.020290077
infection 0.044143233 -0.026589906 0.044788215 0.013309609 0.022574756 0.047695924 0.009943236 0.022128452 0.042846512 0.04378522 0.03233287 0.029725123 -0.004184533 -0.02299217 -0.035271097 -0.01687634 0.044554923 0.0046171434 -0.04925529 -0.002795793 -0.00032569095 -0.003626071 0.044933688 -0.002669774 0.027438547 0.045738567 -0.0362371 -0.0009992942 0.030605327 0.026567731 -0.024725271 -0.01340878 -0.041168142 -0.025694598 0.012691628 -0.04095743 0.046852116 0.013844166 0.02738503 0.02661575 -0.023538744 0.028912235 0.04591239 -0.016383372 -0.01349882 -0.01483202 -0.012528051 0.020569395 0.017482888 -0.036611 0.024021056 0.025402438 0.039023463 0.0380414 -0.0265697 -0.049918223 -0.010236539 -0.007412769 -0.004479289 0.029705111 -0.031484425 0.024758372 -0.04290221 0.0144391395 0.025827613 0.038349938 0.048673082 -0.00869732 -0.03623731 -0.02326771 -0.02669741 -0.038970243 0.028983202 -0.010746002 -0.0140347965 -0.04081892 -0.032052137 0.03054363 -0.0013810508 0.0009864792 -0.026388621 -0.04371351 -0.032854844 0.025326204 -0.006926406 -0.036682546 -0.046123303 0.02074999 0.018609736 -0.046978842 0.0028836504 -0.035717152 0.043456648 -0.02834542 -0.02598374 -0.024279654 0.00026939064 -0.032978952 -0.0032897815 0.009622872
successive -0.03546069 0.0014401302 -0.0023731217 0.03169134 0.0075142495 0.016150448 -0.017069854 0.0018339269 0.012980092 -0.001326967 0.00327003 0.035215747 0.021670613 0.047489394 -0.030853963 -0.038216162 -0.014341533 -0.04039496 0.020904016 -0.02451533 0.031836476 0.00079330057 -0.036858678 0.0021604896 -0.047104325 -0.040257193 -0.04359417 0.0047492385 -0.030884577 -0.0003142357 0.011593759 -0.029140664 0.011335779 -0.048260044 -0.042795192 -0.005395867 -0.009470213 -0.049994327 -0.025725186 -0.012728117 -0.041794788 0.044857983 -0.023958433 -0.0010969155 0.017458607 0.040737543 -0.03486065 0.004813481 -0.009126652 0.038862217 0.0033195242 0.004082419 -0.0372385 0.0005816333 0.04675373 -0.012336362 0.049638595 0.02797867 -0.013698019 -0.030954374 -0.003954254 0.0069519766 -0.030646002 0.049989294 0.042505953 -0.023013819 -0.029989934 0.021729339 -0.01754105 0.038661923 -0.034774005 0.04438721 0.04477005 0.016538586 -0.00774274 -0.005784869 -0.022192657 0.009743653 0.040723924 -0.023605907 -0.03548666 -0.04402032 0.033306528 0.018686023 -0.03849888 -0.00081532076 0.003417801 -0.011336885 0.045856547 0.013075318 -0.013309766 0.018577028 0.03720698 -0.015184842 -0.036843836 -0.029949594 -0.020036174 0.037433732 -0.014238942 0.021613505
cases -0.011097409 0.034353185 -0.003683187 0.021469224 -0.028290678 0.0047363527 -0.019102657 -0.028058423 0.021422017 -0.0141395815 0.027709436 0.021640006 0.025133204 0.01270828 0.022774663 -0.021695102 0.008801423 -0.02389592 0.026092377 0.023779359 0.011819016 -0.015294768 -0.0008325204 0.018301371 0.0017028674 0.0024346225 0.03631716 -0.007550977 0.029519442 -0.045999732 -0.0033324473 -0.043594923 -0.023444617 0.013482336 0.045778524 0.03667866 -0.033739567 -0.029170204 -0.008461297 0.012935746 0.0407643 0.028490249 0.026936267 0.01899233 0.030512955 -0.022464741 -0.002410747 -0.013908006 0.034180034 -0.016944993 -0.012985684 0.01828238 -0.04748801 -0.039508365 0.040798556 0.028656159 -0.015574895 0.021353435 0.010697365 0.037899222 0.026738714 0.04461732 -0.036190975 0.012613241 -0.0028864518 0.0004416816 0.0066249967 -0.017561663 -0.00024299696 -0.04177488 0.033917274 0.01915982 0.009967912 -0.028263772 0.010218132 -0.036201812 0.023633566 -0.03714932 -0.02364341 0.02295908 -0.006499447 -0.011366595 0.0028903596 -0.033130825 -0.04279021 0.017860029 0.04673637 0.009380698 -0.018092252 0.035611343 -0.03161906 0.0005587712 -0.009348046 -0.047875524 -0.0035508275 0.047904577 -0.040000953 -0.032856204 -0.013054095 -0.009625364
estimated -0.025766218 -0.0011381395 0.03622215 0.0077353828 0.015016485 0.04487933 0.04198679 -0.03154 0.043460477 -0.031651784 -0.028230775 0.009284746 -0.02977612 0.011830319 -0.045571197 -0.04886341 0.040006388 -0.009188939 0.013015855 0.01950283 -0.010607146 0.017906059 -0.0062326193 -0.020707322 -0.043869615 -0.030779064 0.0058866143 0.032774854 0.015126396 -0.03543495 0.00018314272 0.034948077 0.04830524 -0.003297329 0.012203254 -0.007339526 0.01774237 -0.046388246 -0.011346459 0.045023765 0.012563992 0.023475792 0.032960426 -0.041051246 5.64456e-05 0.049715888 0.0024393573 -0.018397927 -0.021179045 0.03217492 0.046028946 0.024916995 0.022441957 -0.041733004 0.023321357 -0.024185264 -0.009400308 -0.031729806 -0.009877622 -0.030784989 -0.021799231 -0.021011604 0.044560898 -0.036972225 0.042208586 -0.02730372 -0.029525721 -0.037915327 -0.046300422 -0.020775808 0.010616016 0.036638055 -0.015707444 -0.046091653 0.043030713 -0.01606084 0.0010093823 -0.027312875 -0.032723773 0.015320513 -0.0006743297 0.04178944 0.02641407 0.00055022165 -0.016774606 0.042858552 -0.04044924 0.010963656 -0.024599148 -0.027677584 -0.04261606 -0.044130206 -0.029678976 -0.014112521 -0.033710852 -0.031922378 0.041328374 -0.0009922162 -0.019987 -0.038309086
6 0.0062197223 0.039524052 0.021749686 -0.038636386 -0.0018507019 0.03494021 0.032097045 0.0077173 0.016433168 -0.008098461 0.04653715 -0.002798915 0.011395514 -0.002281785 -0.049079906 -0.011550009 0.04444765 -0.03489225 0.007487498 -0.012553167 -0.04966719 0.042774845 0.013713863 -0.017669093 0.013742458 -0.036072563 0.0073941723 0.023404922 -0.022618389 -0.008177567 0.04786739 -0.04528893 -0.01974907 -0.044840287 0.02220836 -0.01922865 0.012578461 0.031321514 0.00086289644 0.028114509 -0.010090422 0.04040328 0.025387052 0.033855427 0.010329664 -0.0022159442 0.03998771 0.011524808 0.013011064 0.021516208 -0.03386847 0.04269358 0.042897526 0.044192288 0.00639534 -0.033565223 0.027450155 -0.037621118 0.017095458 -0.015173625 0.0067032687 0.011897504 0.030253064 0.00768001 -0.020473123 0.02279557 -0.015702643 0.024715055 -0.048514973 -0.0037721023 0.043824103 0.007783722 0.01056869 -0.032833803 -0.008370589 0.0335438 -0.031632602 -0.04001832 0.047778416 -0.028730143 0.023421157 -0.016798507 -0.0024107099 0.019158471 -0.0056038275 -0.01674819 -0.013006974 0.010708164 0.01439536 -0.020845402 0.021339465 -0.04979234 -0.035497237 -0.0460778 0.044019822 0.011154175 -0.04478543 0.017277863 0.016435709 -0.037317228
means -0.008176278 -0.03586433 -0.037285447 0.029487144 0.038522746 0.028820697 -0.0021548867 -0.04604522 0.0072821267 -0.040003467 0.042909387 -0.009500813 0.03895476 -0.03172666 0.00063861534 0.015479472 -0.010138832 0.047436785 0.016831044 0.044180874 -0.020520806 0.0401516 -0.04780196 0.019741502 -0.04853326 -0.0018408298 -0.038115896 -0.046273675 -0.018368136 0.018925037 -0.044475198 0.023820493 -0.017702293 -0.03247404 0.017754111 0.020540442 -0.021576215 -0.021237517 0.046649884 0.023805108 0.047111396 -0.012468647 0.02547625 0.0065185316 -0.019054353 -0.03624338 -0.021656597 -0.047183957 -0.012241244 0.033282343 -0.03885455 -0.032798756 -0.0031178966 0.041780856 0.04402418 0.005962264 0.011862457 -0.019009495 -0.013855554 -0.038100384 0.037487898 0.007467389 -0.011665713 -0.028191507 -0.009450149 -0.016386233 -0.022741044 0.042344976 0.033626202 0.045102764 0.012467217 -0.034650743 0.0411301 -0.04047345 -0.016908158 0.012743596 0.0045974962 2.6036054e-05 -0.044124007 0.0031841286 0.02130926 -0.002275657 0.00043041632 -0.015354205 -0.0023571365 -0.045168795 0.028413404 0.0073024407 -0.00896772 -0.04224789 0.008117508 -0.013542306 -0.047834124 0.014691185 0.044624556 -0.043112528 0.012289297 0.009408854 -0.044911694 0.0011953823
spread -0.027389575 0.041167308 -0.023727143 -0.014432978 -0.019828392 0.0303743 0.023057785 -0.021008873 0.005146824 -0.008927025 -0.046691824 -0.020082856 0.030542884 0.0019228086 -0.004690446 0.035256173 0.03959537 -0.036734544 0.015759576 -0.015642215 0.048551384 0.015149821 -0.014384113 -0.014536761 -0.010415245 -0.014876019 0.03390718 0.0493615 0.033973146 0.045868162 0.011810504 -0.032660805 -0.024766577 0.043634962 0.039946977 0.04414374 0.0020107515 0.012990806 -0.03647723 -0.042347193 -0.039748084 0.03504889 -0.016328871 -0.036322188 -0.038002312 0.019892823 -0.018729173 -0.038894497 -0.014760673 0.015555624 0.042242322 0.044294152 0.03606682 0.028863583 -0.04538231 0.035598937 0.03724805 -0.042137586 0.02996857 0.045235682 0.017173592 0.0042410605 -0.025845481 -0.002340652 -0.012688853 0.012483727 -0.035197746 -0.046872545 0.028595734 -0.009351075 -0.008377291 0.020821061 -0.006976567 0.046941135 0.0058531985 0.048718918 0.02366494 -0.009641003 -0.035594095 0.03804115 -0.028586924 -0.04309367 0.047935855 -0.04830407 0.022457946 -0.018708527 -0.00011564419 -0.045218207 -0.019464517 0.016136158 0.008327983 -0.009372164 -0.031587183 -0.020348107 -0.0043721087 -0.02135762 0.043334786 -0.0060772523 -0.016378153 0.0007086396
faster -0.03551457 -0.00071830675 -0.028197885 0.0043230057 -0.03287921 -0.009308636 0.025912296 -0.0143386945 0.047380675 0.046721864 0.032407466 -0.010274529 -0.021922827 -0.030583395 -0.00291761 -0.013007104 0.018961336 -0.013765205 0.021773066 -0.016033936 -0.02355286 0.0455562 0.0008385666 0.04836193 0.034612868 -0.016244315 0.025116194 -0.017843105 -0.008449364 0.0026409402 -0.0074449293 0.04684973 -0.008201707 -0.0125752315 -0.029795373 -0.04470258 -0.03555281 0.008758165 0.00024573877 -0.012277652 -0.030746317 -0.039776076 0.010904204 -0.039855562 0.007029403 -0.0012542829 -0.0045288317 0.0070133097 -0.027062356 -0.011934627 0.00043419749 0.018996444 -0.024198188 0.0010038503 0.044641066 0.03989515 0.03328431 0.032344352 0.026862111 -0.027485503 0.04667194 0.038879264 -0.03486667 0.0039667487 0.045668665 -0.0014978871 0.0075602755 0.038739648 -0.044597853 -0.041216075 0.017329182 -0.03766962 0.0492574 0.023576606 0.04162908 -0.04284325 0.017047573 0.009670436 0.02293953 0.009323381 0.033581425 0.028237093 -0.048532378 -0.019739604 0.014227178 0.011923708 -0.029968405 -0.016233146 0.03551494 0.01377945 0.0025477186 -0.015035987 -0.019849826 0.0025364272 -0.016389728 -0.003350567 -0.033538986 0.008014083 -0.008269619 -0.027989317
further 0.042541873 -0.00023863465 -0.042168595 0.0020802133 0.03549404 -0.012195814 -0.0056305304 -0.0306535 0.013354752 0.0069284923 -0.04642861 0.047523085 0.023716893 -0.023340536 0.03298733 0.012293268 -0.008259248 0.013992738 0.010115217 -0.0491933 -0.04336188 0.029087078 -0.010430872 0.02060553 0.04821563 0.013182823 0.03044561 -0.017871954 0.019041542 -0.026774144 -0.023207342 -0.03675258 -0.040890764 -0.016803801 0.0101693645 0.018783245 -0.04253086 0.04723059 -0.043883193 -0.038073253 0.00017011166 0.016670357 0.025975097 0.019471679 0.0009913333 -0.00042972714 0.005381573 0.041294266 -0.025841404 0.028223779 0.018256668 -0.04289298 -0.049021233 -0.008146763 -0.029005706 0.036802594 0.016412463 0.02687386 -0.018048573 -0.0371732 -0.005276192 0.0019888394 -0.026762152 -0.04468391 0.035784293 0.032893743 0.040991332 -0.009584308 0.04906695 -0.0045180693 0.032046985 0.009913601 -0.023054063 0.042650845 -0.0057470426 0.00599283 0.043431196 -0.016513407 0.011231422 -0.038193226 0.02120347 0.04693422 -0.021110702 -0.013714276 -0.04655982 -0.0022477135 -0.014587712 -0.02797941 -0.04436096 -0.03350214 -0.03665322 0.005356837 0.013828579 -0.02767924 0.04269192 0.0012975335 -0.0016859993 0.03797901 0.029338215 -0.031811297
first -0.026960088 0.025646295 0.025643837 0.0004329197 -0.006432973 -0.0009894483 -0.03217461 0.007674802 -0.00052911043 0.033763412 0.024324324 -0.008936275 -0.0009526983 -0.023455454 -0.03596251 0.043578018 -0.027458442 0.031157676 -0.029736007 -0.04115062 -0.011808883 -0.028122997 -0.006105207 0.0014226921 0.027750839 0.010764431 -0.027937246 0.015408222 0.047235478 0.00061599165 -0.02087376 -0.038976956 0.030751672 0.02421819 -0.028181328 -0.04193046 0.0035186782 -0.032875255 0.04788926 -0.00067781284 -0.031576563 -0.0036281124 0.017848168 -0.024127329 -0.04474783 -0.0067572817 0.0015263781 -0.017869245 -0.044826783 -0.0077202693 -0.0032606237 0.0018361695 0.031353127 -0.010657392 -0.012562871 -0.04048159 -0.035557367 0.04827651 0.046612706 -0.011890136 -0.020713067 0.008212663 0.037226025 -0.021836508 -0.034084596 0.013703015 -0.019399572 -0.03946327 -0.002001036 -0.02229377 -0.012337051 0.033727873 -0.03307811 -0.04686078 0.045199934 0.00021705776 0.022590306 0.03994861 -0.03998431 0.03633975 0.02133682 -0.015690017 0.016366426 0.044647407 -0.018873919 0.02838843 0.045770038 0.04641903 -0.0072087273 -0.033472016 0.047713306 -0.014120199 -0.023036933 -0.026128292 0.0054524913 0.036131766 0.015348677 -0.03933693 -0.0057432763 -0.033659995
illness -0.039342344 -0.009523869 -0.02657373 0.041186895 -0.04762088 0.022978116 -0.040145803 -0.035879184 0.023244653 0.03400499 -0.043096412 0.028232936 -0.010081194 -0.031400837 -0.016600955 0.014665913 0.029399406 -0.030069793 0.014005113 -0.02805308 0.032112215 0.002890788 -0.030296767 0.017051231 0.022447634 -0.013010323 -0.027795423 0.019076671 0.013790678 -0.011920296 -0.029254008 0.020268667 0.0361727 0.0012330785 0.048131514 -0.040585853 -0.046378758 -0.008221269 0.037210133 -0.037391674 -0.03493161 -0.041095532 0.006771397 -0.04978777 0.032454062 0.03619237 0.04216859 0.026767936 0.04893634 0.0113369115 0.014250074 0.021174598 -0.006117247 -0.002228368 0.016642977 0.025453318 -0.04118172 0.016266707 0.030261923 0.022635248 0.026223544 0.03542543 -0.013238393 -0.047112454 -0.027919805 0.020485763 -0.028238809 0.02681185 0.025858406 0.038413893 0.025509905 -0.020309245 0.015890088 -0.04469744 -0.033450045 -0.04750241 0.04754206 0.044010427 0.02601904 -0.0034325123 -0.014663897 0.024127591 0.046627436 0.04655684 0.049520183 0.0005340576 0.03929508 0.021214608 0.0011758097 0.020139668 0.021124016 -0.04255364 -0.011362243 0.0454537 -0.014104985 -0.012851737 0.04660969 -0.020532632 0.015096549 0.04421827
or -0.0478487 0.006204117 0.016526584 -0.016220402 0.043100778 0.043138493 -0.03332664 -0.042987432 -0.019590605 0.02084544 -0.018346153 0.008468725 0.001510106 -0.0042276867 -0.04553747 0.012911726 -0.02960595 -0.009017121 -0.04164077 0.03213718 0.0029487982 -0.023045553 0.0026853457 -0.029854191 0.025991652 -0.021829117 0.0036777854 0.041300002 -0.04754963 0.040874925 0.0054727793 0.025651995 -0.008900441 -0.007992804 0.0142038725 0.023005906 0.020474423 -0.004422389 -0.020252729 -0.029427338 -0.049723484 -0.010138728 0.008346021 0.010868691 -0.03368797 -0.040760018 0.04222623 0.0016866215 0.048565578 0.016653862 -0.040565573 0.044921223 -0.012695979 0.0053707846 0.035686422 -0.0005578771 0.036357652 -0.04524207 -0.043304183 -0.01278422 0.031447258 -0.029434431 -0.02054192 0.0049019456 -0.04754529 -0.048312902 -0.019046498 0.030662034 -0.0016769767 -0.04170524 0.009345733 0.016394485 0.0013563633 0.04330473 0.0056985132 -0.024712337 0.013632063 -0.023197819 -0.01306168 0.00455489 0.018867556 -0.026236916 -0.03845191 -0.041504286 -0.0004756078 -0.011050891 -0.03167348 -0.035058342 -0.0042255297 -0.01209303 -0.0062777624 0.045707095 0.0432065 -0.0024453513 0.04095595 0.043940965 0.01749381 -0.026559496 -0.027775204 -0.021443618
potentially 0.038812865 0.028448772 0.048872102 0.04732858 0.03160212 0.010759722 -0.043940116 -0.029627753 -0.040159024 -0.034682415 0.014061239 0.002218388 -0.017241322 0.011104621 0.048173737 -0.019477678 -0.038011014 -0.043944206 0.0070041046 0.024845075 0.015558172 0.03624404 0.031178486 -0.0078104734 0.01795799 -0.0125345215 -0.0033777356 -0.030174315 -0.04964236 -0.029713452 0.0034015886 0.0123618245 -0.02246716 0.022692446 0.029170845 -0.04364389 0.015571605 -0.018424511 0.0066977516 0.014913645 -0.030045748 -0.015539218 0.0146021135 0.002770353 0.002824057 -0.00091527775 -0.0029598847 0.013254944 -0.01061032 -0.0135274045 -0.03951987 0.0305706 0.030482162 -0.0020674355 -0.02844745 0.014267411 0.005519785 -0.02707324 0.048882935 -0.017885827 -0.006500911 0.04047731 0.0022995248 0.03656968 0.036827568 -0.023828221 0.011080585 -0.010281157 0.03353722 0.025374953 0.021053005 -0.029952085 -0.029730571 0.004151322 0.04818083 -0.025478661 0.002154708 -0.017568588 0.0073129535 -0.0040046684 0.0442538 -0.037805103 -0.027825618 -0.04569241 -0.0072348826 0.0019830354 0.042183723 -0.009390153 0.029775802 -0.0011552796 -0.0051008947 0.0047699697 0.037772607 0.005277358 -0.005125571 0.003209781 -0.025295675 0.019460905 -0.033611108 -0.007814337
pre 0.041801002 -0.024154425 -0.009526394 -0.037955128 -0.012730539 -0.038064517 -0.04060038 -0.008545268 0.033454146 0.04878391 -0.026949108 -0.006680526 -0.017582357 0.033238675 -0.014511239 0.04890727 0.0084118955 0.042243812 -0.03331151 0.04676527 -0.04483814 0.049268555 -0.020928204 -0.026138186 -0.0029850826 -0.016370296 0.023011032 0.010744035 0.0055829287 -0.03149209 -0.03170474 -0.014698923 0.00040751696 0.047697593 0.022204962 0.04945991 0.001998961 -0.025734032 0.03740051 -0.018075444 0.040156964 -0.018381845 -0.008544397 0.01773386 0.02093308 0.01467948 -0.004646849 -0.047847845 -0.039944958 0.022302475 -0.04043933 -0.026301635 -0.038570225 -0.00088882446 0.021169934 0.031203296 0.043521766 -0.028984725 -0.046612885 -0.0021671653 0.048939455 -0.037122525 0.027831089 -0.013266005 0.013531733 -0.0016785264 -0.019395841 -0.01835059 0.0062537305 0.014615897 0.025238719 0.03573248 -0.016901217 -0.01037959 0.01974589 -0.04459977 -0.032462228 -0.010337092 0.024027396 -0.045529723 -0.006661415 -0.005704306 -0.024180759 -0.018847048 -0.046246897 0.035968665 0.035254885 -0.011181653 0.03570204 0.018843558 -0.040459644 -0.03242811 -0.008302927 -0.027095055 -0.02992258 0.013967801 0.024025645 0.045820106 -0.028153503 -0.03449867
symptomatic -0.0072093606 -0.045367744 0.013801012 -0.031710684 -0.0063212626 -0.026258886 0.0030248761 -0.026026165 -0.048482932 -0.024195671 0.048557196 0.030791093 0.001078736 -0.028978014 0.0107437 0.020998549 -0.04121827 0.028282907 -0.0057852753 -0.03081615 -0.007676743 -0.004500497 -0.047348764 -0.021874715 -0.026778257 -0.046572745 0.038639832 -0.02087791 -0.0016234517 0.005741298 0.029281165 -0.023981547 -0.010874093 -0.004132103 0.049022365 0.044165205 0.033254627 0.0056357607 0.0037188157 0.042154994 0.018312704 -0.04699104 -0.02724408 -0.01103102 0.018932763 0.03781483 -0.0037545934 -0.049255695 -0.022872556 -0.016183782 -0.03864018 0.02396674 -0.009620417 0.023030046 -0.038226403 0.02467246 -0.033128776 -0.01772704 0.03149743 -0.014290344 -0.015144397 0.0135341175 -0.03197912 -0.027515758 0.0326445 -0.035743557 0.036870968 0.010207962 0.029155497 -0.048776247 0.037414636 0.019792918 -0.026724935 -0.023907913 -0.00132991 0.011772811 -0.024144828 0.031202402 -0.0052312836 -0.023800923 0.016977433 -0.008517314 0.011109628 0.0009610541 0.004105579 0.040949795 -0.012147784 0.039082278 -0.023198618 -0.012676965 0.025320414 -0.036477067 -0.019203544 0.036490466 0.01882689 0.04956274 0.04248308 -0.005546488 -0.0060041547 0.004634153
–transmission -0.034524273 -0.0090665445 -0.04055356 -0.020151615 -0.024049092 -0.040858198 0.040501904 -0.011038445 0.038479593 -0.029530955 -0.026695037 -0.037939142 0.0432148 0.0075641163 0.002195347 -0.007937014 -0.019587327 0.009329248 -0.0067779645 0.029631581 -0.047174133 -0.013823174 0.005064547 -0.04955404 0.035741698 0.020026755 -0.036178015 0.033563618 0.049911473 0.03449354 0.019767117 0.04151613 0.038212094 -0.012940515 0.048053693 0.031558562 -0.013083361 0.04071435 -0.0049285404 0.018460441 0.023030613 0.029601466 0.026485551 -0.046747304 -0.0004511103 0.04954872 0.022215795 -0.00023854896 0.028553415 -0.023725534 0.04126234 0.03744283 -0.024598623 0.0045522563 -0.049458455 0.015666906 0.02086756 -0.031803716 -0.016520701 0.049738143 -0.010772586 -0.013979219 -0.048330545 -0.040124357 0.030923877 -0.00053755194 0.0363621 0.014702987 0.004781317 0.047054183 -0.0077457316 -0.016857363 0.017702106 -0.000349544 0.0429981 0.0029888637 -0.024703432 -0.013827633 -0.04234649 -0.004925929 0.01231394 0.002963446 -0.034055866 0.028694917 -0.026259912 0.004510056 0.02563845 0.024549458 0.0077341683 -0.044880938 -0.038802374 -0.011247911 -0.03561337 0.026797269 0.022754919 -0.041221596 0.028990101 0.048358176 -0.03826064 -0.043993175
before -0.025445808 -0.01232041 0.016549263 -0.00587406 -0.020539856 0.017855 -0.022156907 0.004592765 0.04613248 0.047720265 -0.0019678362 -0.009550571 0.008674502 0.015222993 -0.015883207 -0.048426654 -0.04610106 -0.00019979477 0.021500174 -0.007886447 -0.021764314 -0.03880713 0.017644752 -0.02400514 0.024717305 -0.019047415 -0.037528932 0.02724867 0.019192163 0.033685002 0.038989138 -0.029678786 -0.006990753 -0.032993425 0.008268524 -0.02455989 -0.021881485 -0.030910015 0.03748324 -0.042163145 0.030126814 -0.006640505 -0.04512943 -0.016726326 -0.01865872 -0.045180965 -0.012426041 0.015545461 0.038156237 0.0059112906 -0.03438399 -0.0018291958 -0.0058655515 0.01825856 -0.006062329 -0.017727565 -0.01050197 0.038741592 -0.03446399 0.017506551 0.03963733 -0.012227941 -0.011779167 0.011186529 -0.020912541 0.0374575 0.039887894 0.021037612 -0.045169245 0.0093181245 -0.04124979 0.01676866 -0.046427347 -0.023081804 -0.044243384 0.0312115 0.04780152 0.041040484 0.04635117 0.04591899 -0.005252205 0.0419518 -0.020864462 -0.03583207 -0.047011506 -0.045622148 0.030058514 -0.044108152 0.00067601353 0.006994605 0.031868014 0.045762207 0.0026525036 -0.020725405 -0.011608172 -0.036090028 -0.04363637 0.014848661 0.048384022 -0.036519468
contrast 0.027493868 -0.0009051673 0.040607978 -0.04499507 0.031829845 -0.04826057 -0.042409778 0.00643133 -0.031429827 0.00076401234 -0.031141652 -0.016799115 -0.008104049 -0.007398974 0.017552856 -0.00087002665 -0.026497161 0.03275806 -0.0029834136 -0.03404311 0.020478714 0.00400728 -0.033167616 0.010815442 0.01541486 -0.03594538 -0.023738896 -0.012417577 0.0009361729 -0.00343249 0.017627109 0.005167473 -0.027638435 -0.013168037 -0.017598666 0.0046748295 -0.04632951 0.0041700713 0.015577901 0.028985154 0.04785988 0.027601693 0.048807774 0.036297392 -0.016171444 -0.033500634 0.023726966 -0.01051129 -0.021569027 -0.026706232 -0.04155288 0.03337193 -0.0011204965 0.0057039037 -0.028975904 -0.0058986433 -0.0044158474 0.04148406 -0.025536358 -0.00085350126 0.0059123747 -0.008433618 -0.03534005 -0.04282124 -0.044390835 0.0116459355 0.014615167 -0.009399511 -0.030445516 -0.04411724 -0.0098431595 0.028473798 -0.0152125135 0.041331086 -0.030018259 0.01851758 -0.003052473 -0.046676077 -0.017726101 -0.0010929331 0.04730839 -0.013098322 0.010669075 -0.012705423 -0.0054319277 -0.008310698 0.04535831 0.049362194 -0.0023393258 -0.023426522 0.031139325 0.020624314 0.014266465 0.020744804 0.029120062 -0.014453255 -0.047028005 0.0024295077 -0.03389652 0.03051814
we 0.023272905 0.013187338 -0.0058880933 0.047557417 0.047347117 -0.015347481 -0.024943316 -0.01703168 0.019990873 0.04890478 0.04112642 -0.02967819 -0.045879245 0.026827168 0.02458999 -0.03921765 0.04945511 0.03775866 0.012877155 -0.042510796 0.020388674 -0.009335518 -0.018258967 -0.004316736 -0.027653813 0.030973721 -0.026319837 -0.03430611 -0.00073764473 0.038893435 0.03619243 -0.0074672103 -0.02178489 0.016729783 -0.0121597275 0.01033064 0.011701606 -0.0034900084 -0.0034580715 -0.04825492 -0.0033089295 -0.025736487 0.0036548972 0.018983457 -0.025483346 0.012513269 0.03822985 -0.048000492 0.021684911 -0.02891226 -0.03510394 -0.021169662 -0.031399503 0.028715398 -0.027143944 -0.026217138 -0.0027283318 0.012897585 0.04777577 -0.044520415 0.035083044 -0.002178371 0.007626377 0.01186458 -0.045257486 0.011109006 0.017079461 -0.00810089 0.007960368 0.018316042 -0.042799678 -0.037514795 -0.042243004 0.041757468 -0.009275366 -0.021748042 0.0047205575 -0.014102805 0.033660028 -0.00226276 -0.03569287 0.0477896 0.007431399 0.014557932 0.037329618 -0.02847525 0.0094619505 -0.022678172 -0.023689425 0.020006541 0.016753796 -0.03537334 -0.015470315 -0.009088945 0.04208645 0.024625722 -0.0062533394 -0.04282371 0.0061335787 0.04800648
learning 0.0055003874 0.023493078 0.044611063 0.03611583 0.0032106861 0.016859625 -0.035553873 0.007326007 0.03318348 0.0036541708 -0.014992379 -0.049321067 -0.03076744 0.030147705 0.028685872 -0.038152456 -0.04492383 -0.03483356 0.0054725036 0.048101697 -0.01797428 0.043545257 0.025524948 0.037637997 0.006635867 0.018275391 -0.011380874 0.03009976 -0.012013353 0.024394814 -0.007051192 0.04728755 0.0048048273 -0.0103715435 0.02703495 0.014146339 0.044973183 0.021858882 -0.049628247 -0.0105748065 -0.04348625 -0.031676568 -0.043123044 0.031437207 -0.032805968 0.016032849 0.01946408 -0.020255793 -0.031368807 0.012689125 0.00084264204 0.04465696 -0.047600187 0.024066593 -0.021441652 0.007197082 -0.010504365 0.038128626 -0.0014592521 0.028208379 0.004959572 0.0016347542 0.04917166 0.01632813 0.048037026 0.01102519 0.035435233 0.012126576 0.034056988 -0.026347483 0.01944996 -0.02514789 0.012462556 0.021126498 0.030626956 0.041300964 0.045215975 -0.049369898 -0.044567645 -0.02097311 -0.032824457 0.014397327 -0.048441123 -0.00065303966 -0.02288884 0.019336727 -0.0015332326 -0.012829147 0.010967314 -0.04772084 -0.0046067946 -0.024108922 0.0357679 0.040702228 -0.03583183 -0.03359251 -0.036177266 0.03607625 -0.031373657 0.020646486
there -0.002088882 0.025628578 -0.018962836 0.0011766925 0.02233218 0.027677331 -0.04067576 -0.0194749 0.03068528 0.03784347 -0.01577729 0.023846615 0.025974754 -0.020822167 0.025468457 0.01780567 0.043280017 0.04091345 0.045248102 0.03763436 0.018738661 0.046314526 -0.005248975 0.028476741 0.01921637 0.015657756 0.044764172 0.036386635 0.029393245 0.03222436 -0.03885894 -0.048247136 0.013681922 -0.013720252 0.04681773 0.027145598 0.022168878 -0.04868851 -0.037320506 0.026909534 0.0028034672 0.016004238 0.012154162 0.049634565 -0.0045963153 0.0023630746 -0.02335534 0.021349858 0.02176502 0.02859265 -0.045675218 -0.016367543 -0.025268842 0.039215256 -0.015756082 -0.012227308 -0.0103240125 0.042789448 0.016523603 0.009291887 0.0043669827 0.0003059879 -0.038826335 0.04496615 0.02514856 0.009525873 0.00040388107 0.014424335 0.04077119 -0.020694673 -0.048687387 -0.025417197 -0.01122706 0.032049928 -0.042470362 -0.030618 -0.0058218017 -0.045759212 0.01902828 -0.00081175566 -0.040601242 0.031892885 0.04759338 -0.021439815 0.048439216 0.04998416 -0.015882682 0.013596002 0.00050053746 -0.0033229813 0.028384577 0.018947277 -0.008298684 -0.047248174 0.02401859 0.0024181008 -0.005726207 -0.032131687 0.03264967 0.04924104
people -0.0045744404 -0.036408078 -0.0066874996 -0.044888318 -0.037082218 -0.026063478 -0.0037305728 -0.037943423 0.044507276 0.034725416 -0.046910703 0.01040145 0.011191655 -0.0028948672 -0.009480845 0.009721935 0.008336533 0.04123613 -0.02805245 0.02216724 -0.020016206 0.018816736 0.02522314 0.023039285 -0.014997553 -0.012725543 -0.04398315 -0.045370746 -0.021298004 -0.017383896 -0.03193154 -0.03777386 -0.018001437 0.02981485 0.0015330911 0.04071231 -0.03832086 -0.049991537 0.04819608 0.0021424517 -0.033180796 0.015080702 0.038498674 -0.014052212 0.0017202981 -0.046451855 0.0048121214 0.048844982 0.006844867 -0.02762723 -0.010905515 -0.023694647 0.021459851 0.009540081 0.026277173 0.014829289 -0.006406091 -0.019648481 -0.0062053315 0.043234896 -0.001256384 0.028537896 -0.016825557 0.0060969107 0.026413653 0.043830503 0.015129928 -0.0030550137 0.018919494 -0.029781867 0.01609138 -0.020331645 0.038212527 0.010492813 -0.014139712 -0.02619028 -0.016672373 0.03297588 -0.012421239 0.008353401 0.03374752 -0.049894214 0.037715826 -0.009144008 0.010138631 0.0041865334 0.012255453 -0.028197039 0.04697338 -0.036116697 0.015853558 0.028057288 -0.009247005 -0.041235603 -0.01598413 -0.024606718 -0.011596132 -0.01825162 -0.0018224008 0.004810225
who -0.006886445 0.022055771 0.028589379 -0.0052995794 -0.008111201 -0.04267739 -0.0037890188 0.024713706 0.049958516 0.04061533 0.0037960894 -0.048750628 -0.041199613 0.014282692 0.046834145 0.005658172 -0.0121154785 0.021979619 0.047533903 -0.01958312 0.010701418 -0.009225439 0.0131875165 0.029030357 -0.024388695 -0.03483162 -0.013578605 0.025892045 -0.009519041 0.034412835 0.017163161 -0.032974146 0.040719274 -0.0155903585 -0.022195185 0.033425633 -0.017786525 0.022204865 -0.02260505 0.03232949 -0.003769111 -0.037493456 0.023134355 0.02518623 -0.010820199 -0.048065256 -0.00034182146 -0.03532722 0.015231099 -0.04099232 -0.027430272 -0.043874096 -0.042446446 -0.03798424 -0.005553294 -0.04722798 -0.03792702 -0.029748106 0.0134044625 0.032165814 -0.0062255636 0.049642947 -0.02380811 0.019438777 -0.01882037 -0.012972821 0.045062963 -0.032369792 -0.045830585 0.022365142 -0.034589313 -0.019379318 -0.012913514 0.010765851 0.035415653 0.0077675097 -0.030040741 0.02129921 -0.046832692 0.022001911 0.049627785 0.012057256 -0.006716989 -0.026995445 0.04948621 0.04547732 0.02449793 -0.011311375 -0.03996973 -0.03452183 -0.045959186 -0.042967666 -0.041555513 0.04672612 -0.029790152 0.04356755 0.0064228885 0.006543327 -0.0021333918 0.015065458
shed -0.008320235 0.01839519 -0.033171643 -0.04613353 -0.0003256686 -0.04090462 -0.026813699 0.0019530766 -0.013713442 -0.030880785 -0.03164444 0.020795595 -0.011331428 -0.005881451 0.0073162206 -0.015480757 0.032207195 -0.020514 0.003283523 0.0315557 -0.0014426336 0.035669412 -0.014248945 0.023689304 -0.048576284 -0.013417028 0.025553431 0.020093981 0.0065073483 0.012485612 0.0056659468 -0.010807108 -0.008426558 0.03903388 -0.027636886 -0.00018304586 -0.037792157 -0.036200464 0.01397505 -0.015089393 -0.020095278 0.009525131 -0.0043423884 -0.030632114 -0.033506945 -0.027887512 -0.03422445 -0.005459558 0.04717293 0.019330475 0.047131214 -0.027702654 0.0007292628 0.005132485 0.036356 0.036569927 -0.026290942 0.021980617 -0.031530906 0.011533666 0.012207866 -0.03680415 0.0476061 0.011706401 0.03520857 0.041060816 0.027794432 0.024818908 0.01837385 -0.030637253 0.0022165775 0.0012553111 -0.008683741 -0.039092254 0.0026901588 -0.0052681677 -0.018338908 -0.01901461 0.0092748515 0.031422686 0.038240526 -0.019692076 0.01893944 -0.040840127 -0.02604624 0.0059496984 0.04489019 -0.03420173 -0.047240745 9.4115734e-05 -0.03894051 -0.03792969 -0.0015388504 -0.041214157 -0.037806213 0.020031001 0.0054825433 0.040257636 0.04639412 0.021083105
24 0.023254883 0.033824872 0.006066598 0.004473269 0.041462634 -0.04777808 0.029858079 0.04267199 0.028215956 -0.038904022 -0.0036593452 0.03247461 -0.037889183 0.010157742 0.035665933 0.04227457 -0.0012216456 0.043663014 -0.015487514 -0.02418672 -0.049566127 0.043008056 -0.035545815 0.031622756 -0.004447948 0.040597927 0.049512673 -0.040267516 0.036425184 0.03249139 -0.00965967 0.0011127107 -0.026263548 -0.021543836 0.027172629 -0.024212588 0.038048234 0.0099036805 -0.036449097 -0.044844937 0.03610525 0.033298124 0.009289037 0.0113716945 0.00323236 -0.008436918 0.049304616 -0.021501696 -0.0007208586 -0.04507146 -0.0120914355 -0.046520628 0.014088359 0.007011831 -0.013156522 0.020597007 -0.0050858855 0.032559577 0.023282971 -0.035562027 0.020519797 -0.012571357 -0.0008010641 -0.017728366 -0.0406801 -0.047002103 0.026385691 -0.031048967 -5.961582e-05 0.03272945 0.009914614 0.02732649 -0.019549346 -0.026569283 0.0043760426 -0.00936117 0.022142265 -0.008732401 -0.042590965 -0.013868965 -0.047896422 -0.016165424 0.030014161 0.02138761 -0.049123764 0.013540003 0.0113405585 -0.035436857 -0.032369874 -0.023222363 -0.009509362 0.020464089 -0.043919038 -0.020663083 -0.040988564 -0.040204443 -0.03313129 -0.0028718226 0.035774026 -0.030419946
48 0.012340069 -0.04786384 0.04597148 0.014369879 0.024549734 0.034825552 0.032411966 0.019988287 -0.04318544 -0.043973256 -0.03309723 -0.010157216 0.0423137 0.009926666 0.030690324 0.03848548 0.0058188327 0.04368079 0.041428532 -0.04522673 0.046807315 0.023889806 -0.044711243 -0.03946525 -0.0077944174 -0.037732672 0.046505954 -0.045020033 -0.03864952 0.035608206 0.01174612 -0.03981185 -0.030383075 0.048958514 -0.036648788 0.021524634 0.032010105 -0.04817567 0.006140232 -0.016873907 0.0060674436 -0.0022253282 0.029909816 -0.017696679 -0.013572596 0.036896575 -0.045411445 0.015990581 0.011558007 -0.0057699904 -0.031585947 -0.029254055 0.022726845 -0.022395408 0.031180333 -0.03565017 -0.034336425 0.04585172 0.038818147 -0.015043784 0.02112547 -0.013860486 -0.006390594 0.03826132 -0.031023478 -0.004124593 0.023824725 -0.007333003 0.04000354 -0.00734365 -0.02969687 0.04103065 -0.027552951 0.030078795 0.049098406 -0.026583124 0.0106623545 0.003703855 -0.042692244 0.03988396 -0.04540967 0.041042175 -0.008533131 0.026647333 0.046258856 -0.048316874 0.037481133 -0.031300522 0.021804105 0.03334726 -0.047093164 -0.00964731 0.02240837 0.03745378 0.004343163 0.038152624 -0.018137526 0.04422227 0.04308447 0.04272863
hours 0.018410672 0.030161452 -0.02532041 -0.04522238 0.02947123 0.037798528 0.04328947 -0.028629577 0.014019061 -0.008503139 -0.013788473 -0.03129542 -0.030949771 -0.03858273 -0.045240235 -0.033288766 -0.019048346 0.0011949055 0.022104416 0.049868714 -0.0041684993 -0.027410472 0.0036326423 -0.048950076 0.03362442 -0.02885424 -0.01873064 -0.04931853 -0.0478024 0.021661665 0.024329815 -0.028653359 0.010039974 -0.019416226 0.017671037 -0.041470565 -0.030499924 0.028810393 0.012498248 -0.037015103 0.04870042 0.040116932 0.040986624 0.01092086 -0.022175385 -0.0017134659 -0.03600545 0.035107438 -0.03633373 0.007003568 -0.003931798 0.04165149 0.009453438 -0.027136182 0.031828914 0.047548477 0.0046781525 0.046874236 0.041879427 0.027739767 0.0031035542 -0.043565024 -0.03318832 -0.022256887 0.023427714 -0.016103186 0.016243402 0.007935237 0.00057928637 -0.007292606 0.0047866926 0.043012407 0.018105675 -0.011044718 -0.024775028 -0.0212242 0.009557284 0.018337097 -0.031594314 -0.03185735 -0.035000622 -0.02417375 -0.032530807 -0.012132801 -0.046215344 -0.04607567 0.020680372 -0.046375394 0.030920807 -0.043790605 0.026139628 0.0058215037 0.042386364 -0.04863161 0.046248924 -0.032827962 0.018857788 0.042809177 0.003259398 0.015594792
prior -0.034300387 0.038500477 0.0384341 -0.031716004 0.033196416 0.007397257 -0.04328196 0.04682455 0.02542423 -0.039767124 -0.034615792 -0.018123794 -0.01243956 -0.045215905 0.04408833 -0.0055053234 -0.006688047 0.049109664 -0.037698675 -0.037688553 -0.001417648 0.015278529 0.025233578 0.0033388622 -0.01264783 0.033563245 0.019554023 -0.010546289 0.020908926 0.004520595 -0.023676014 0.04211432 0.02671105 0.018441167 0.013353232 -0.016852714 0.03281231 0.03074174 -0.047790565 -0.002044391 0.02411494 -0.017113794 0.027841453 0.019453954 -0.009425797 -0.017160308 0.017236624 0.040264 -0.0132117495 0.029976178 -0.003730189 0.02738401 0.046097066 0.02732208 -0.04962193 -0.024033487 -0.002708532 -0.023320341 -0.0022066347 0.03577194 -0.036640204 -0.014598608 -0.034353733 0.021534432 -0.047261607 -0.016807437 -0.02155055 0.007954098 0.027408209 -0.012818802 -0.0049840584 0.016652118 0.009536743 0.017564144 -0.028079808 0.022809949 0.034155194 -0.039056946 0.002989471 0.0150482915 -0.029331028 0.01152277 -0.0025986657 0.047681358 0.014390577 -0.0129212625 -0.00565058 0.01094836 -0.023031676 0.010429956 -0.048549782 -0.015664853 -0.02190261 -0.03745874 0.041361872 -0.005274307 0.025051821 -0.03207513 0.021426689 0.0027234927
symptom 0.010061633 0.013253365 -0.049517225 -0.036701642 -0.04575143 0.012809459 -0.0057842135 0.0049504526 -0.021403277 0.028466914 0.04135451 0.04990336 -0.030647099 0.036858026 0.016456101 0.04570314 -0.008123636 0.0064178333 -0.0026020408 0.04927821 0.035998072 0.03858925 0.023959186 0.011350643 -0.022291256 -0.048113585 0.0042622313 -0.0015359633 -0.0014138818 0.02975196 0.009775173 -0.04067137 0.036675934 0.036867235 0.036518145 -0.0015756115 -0.018743873 0.023287598 -0.016703166 -0.013219714 -0.039662145 0.047813047 0.029395606 0.027577642 -0.017177891 -0.030546594 0.012346484 -0.02704202 0.019455124 -0.016209304 -0.031033862 0.009435989 0.0010478869 0.0005174987 0.025737476 0.008881222 0.049931917 0.038805988 0.013193462 -0.029078042 0.0016630068 -0.049162745 -0.02597766 0.033846308 0.04823936 -0.039065886 -0.020662416 -0.013207652 -0.02758875 -0.03365139 0.034089122 0.034850154 0.005616855 0.046568546 -0.028765475 0.045746993 0.0017631538 -0.041353513 -0.02974887 -0.02010715 0.007060148 -0.013786517 -0.00097053126 0.01937313 0.019541811 -0.022969877 -0.006294705 0.041516747 -0.006359659 0.004182063 -0.00013055652 0.038496617 0.04366478 0.018409405 0.012918185 -0.024983501 -0.043213513 0.0064588785 0.016246986 -0.04647993
onset 0.0072496533 -0.03445966 0.04176772 -0.042707216 0.023620132 -0.00855447 0.021082256 0.031131197 -0.04377676 -0.005399216 -0.0182827 0.021135319 -0.049127687 0.04576694 0.0042010173 -0.004157804 -0.029103685 -0.014239311 0.005944062 0.008819055 0.025142338 -0.029630948 -0.01646334 0.04838982 -0.009972833 -0.0037014857 0.026759569 0.037505392 -0.035329185 0.040638413 0.019510794 -0.030281246 0.049925413 0.03956114 0.032942716 0.0052374713 -0.042137563 0.018103544 0.018067349 0.03809278 0.049327318 0.041963708 0.002994597 0.020327915 0.04801995 0.02604134 -0.0016643293 -0.017584193 -0.027227247 -0.027530445 0.03679614 -0.01363828 0.027412783 0.014615659 -0.014476776 0.022826407 -0.031609107 -0.04088366 -0.045077134 -0.032663085 0.048914816 0.01587281 0.01969314 -0.008147072 -0.006644953 -0.004957389 -0.027283728 0.038700495 0.019073907 -0.048895597 -0.041665126 0.031673882 0.010537706 0.018044744 -0.009659339 -0.019360363 0.033668984 0.015228879 0.019518126 -0.0072920322 0.03550308 0.019098233 0.033774618 -0.044367265 0.043238293 -0.019287765 -0.043509852 -0.042467512 -0.005032908 -0.047084678 -0.02979939 -0.028461182 0.036032964 -0.0011306629 -0.00729046 0.03796256 0.030881915 -0.0006200187 -0.038155686 0.028207112
at 0.042395283 -0.033539522 0.039878417 0.025088694 -0.031569913 0.0036094896 0.037755813 0.045853745 0.017144058 0.022363331 0.042746793 -0.0071914904 0.04983231 -0.00070045143 0.020813536 -0.008311044 -0.017114688 -0.017319214 -0.010133423 0.013481233 -0.040427398 -0.00019804388 0.019365158 0.008717895 -0.0006013401 -0.010806657 -0.037245583 0.040612604 0.02601296 0.003699638 0.017097179 0.009959854 0.025522437 0.048267055 0.010298956 0.040211592 0.046950627 -0.033777416 0.014625404 0.0061171874 0.017671708 -0.020593679 0.0044143684 -0.04977913 -0.025632536 0.024891708 -0.03958874 -0.034438908 0.03536893 0.04391196 -0.029089285 0.016865443 0.009038877 0.012553845 -0.022395695 -0.008877397 0.00587181 -0.02382077 0.015434053 -0.019227123 0.008251429 -0.0095466 0.04479238 -0.03013897 -0.006643582 0.040866163 -0.03407221 0.01576275 -0.025369072 -0.03829963 -0.040388536 0.006649114 0.01127987 -0.019985914 0.03131262 0.008831967 -0.01633345 0.015772235 -0.007165991 -0.042792346 0.024449978 0.03480443 -0.009418547 0.021473434 -0.0155861005 -0.020597685 -0.001537133 -0.03699596 -0.04920379 -0.023239423 -0.018533599 0.046049666 0.02626108 -0.041653167 0.011423029 -0.0063282736 -0.011466872 -0.036315035 -0.038077723 -0.013516068
present -0.011963986 -0.002947174 0.037724603 0.031565335 0.04745141 -0.04964582 -0.011926126 0.009454213 -0.022863377 -0.030995226 -0.029322267 -0.014910579 0.011354029 0.038783345 -0.04453782 -0.030328846 0.024920713 -0.021619035 0.037117135 -0.040495038 -0.026241137 -0.0016501434 0.024873983 0.04512305 -0.004910946 0.04410067 0.016297136 0.02030624 -0.012620676 0.025702368 0.013939466 -0.017655395 -0.02945881 -0.0025411472 0.0001334548 0.00544839 -0.027561212 0.011169303 -0.033076763 0.0069706067 0.0005811341 0.010389745 0.00027547032 -0.001974523 -0.017578293 -0.0126945 -0.021607816 0.041706394 0.04960126 -0.023507034 -0.006741382 -0.04279579 -0.04253136 -0.03893145 -0.01071199 0.024507437 -0.012017071 0.04003178 0.047183838 0.009598397 0.043897893 -0.03909687 -0.041616224 -0.04506246 0.036131132 0.00035645813 -0.047590245 0.004974533 -0.04081688 0.028477762 0.016408052 0.029160727 0.04765543 0.028232563 -0.03202541 -0.023225391 0.0066565275 0.007203687 0.021725368 -0.04838934 0.035608996 -0.037597477 -0.023567975 0.029935468 0.021186683 -0.00727563 0.043532733 -0.044928145 -0.026982713 -0.019946588 0.032995705 -0.013552763 0.022495497 -0.02236793 0.012041282 -0.024297262 0.0012014881 -0.038758576 -0.046663094 0.019655142
does 0.018365528 0.016026642 0.0052428134 -0.02905376 -0.035265695 -0.036881723 0.03266288 0.017336 0.007999897 -0.0010094047 -0.013755489 0.03351653 -0.037544597 0.018095437 -0.020610023 -0.043967653 0.024706926 0.018338833 0.0013965257 -0.00575725 0.010799743 -0.029729307 0.034758482 0.027895045 0.028346289 0.025721554 -0.032557227 0.020323504 -0.013789605 0.016620968 -0.034045257 0.025581528 -0.030992424 0.0058660023 -0.008324217 -0.019430185 0.039739694 -0.011299621 -0.004817117 0.011369228 0.044357825 -0.0038932785 -0.031311885 -0.036357723 -0.0008379817 -0.038783133 0.043009553 0.041515056 -0.008798003 0.027384605 0.049744736 0.011950027 -0.017200898 0.043334175 -0.043449175 0.0039096363 0.032181088 -0.019056952 -0.021522438 -0.04039378 -0.02795483 0.013132427 0.04948953 0.0076206103 -0.004116785 -0.006886065 -0.04170551 -0.0027801767 0.036074247 0.011271812 -0.039809443 0.03359438 0.02591027 -0.022237469 0.0048711672 -0.042708993 0.008649837 -0.019433832 0.019015681 -0.0031408295 -0.040095903 0.0034574866 0.00991603 -0.043797232 0.032288577 -0.0016097538 0.028462354 -0.044956017 -0.02553357 0.02726667 0.029772665 -0.04017868 0.0013435967 0.009619761 0.020318124 -0.049023878 -0.027426029 -0.024132228 -0.01747737 -0.047578204
